<?xml version="1.0"?>
<opencv_storage>
<cascade>
  <stageType>BOOST</stageType>
  <featureType>HAAR</featureType>
  <height>50</height>
  <width>20</width>
  <stageParams>
    <boostType>RAB</boostType>
    <minHitRate>9.9500000476837158e-01</minHitRate>
    <maxFalseAlarm>5.0000000000000000e-01</maxFalseAlarm>
    <weightTrimRate>9.4999999999999996e-01</weightTrimRate>
    <maxDepth>1</maxDepth>
    <maxWeakCount>100</maxWeakCount></stageParams>
  <featureParams>
    <maxCatCount>0</maxCatCount>
    <featSize>1</featSize>
    <mode>BASIC</mode></featureParams>
  <stageNum>19</stageNum>
  <stages>
    <!-- stage 0 -->
    <_>
      <maxWeakCount>2</maxWeakCount>
      <stageThreshold>-1.1548533439636230e+00</stageThreshold>
      <weakClassifiers>
        <_>
          <internalNodes>
            0 -1 41 -3.9931993931531906e-02</internalNodes>
          <leafValues>
            1.9891728162765503e+00 -1.8213170766830444e+00</leafValues></_>
        <_>
          <internalNodes>
            0 -1 56 8.7143173441290855e-03</internalNodes>
          <leafValues>
            -2.2384815216064453e+00 6.6646373271942139e-01</leafValues></_></weakClassifiers></_>
    <!-- stage 1 -->
    <_>
      <maxWeakCount>3</maxWeakCount>
      <stageThreshold>-2.1301441192626953e+00</stageThreshold>
      <weakClassifiers>
        <_>
          <internalNodes>
            0 -1 24 -1.8997713923454285e-02</internalNodes>
          <leafValues>
            1.1236175298690796e+00 -1.7169935703277588e+00</leafValues></_>
        <_>
          <internalNodes>
            0 -1 68 -2.8671570122241974e-02</internalNodes>
          <leafValues>
            5.4576414823532104e-01 -1.3482314348220825e+00</leafValues></_>
        <_>
          <internalNodes>
            0 -1 62 2.3701930418610573e-02</internalNodes>
          <leafValues>
            -6.0778671503067017e-01 9.3508082628250122e-01</leafValues></_></weakClassifiers></_>
    <!-- stage 2 -->
    <_>
      <maxWeakCount>3</maxWeakCount>
      <stageThreshold>-1.6509083509445190e+00</stageThreshold>
      <weakClassifiers>
        <_>
          <internalNodes>
            0 -1 41 -6.1541996896266937e-02</internalNodes>
          <leafValues>
            1.1874529123306274e+00 -1.4249402284622192e+00</leafValues></_>
        <_>
          <internalNodes>
            0 -1 76 -9.1823413968086243e-02</internalNodes>
          <leafValues>
            1.1941292285919189e+00 -5.5238634347915649e-01</leafValues></_>
        <_>
          <internalNodes>
            0 -1 101 -6.6548148170113564e-03</internalNodes>
          <leafValues>
            -1.9678406715393066e+00 3.2641813158988953e-01</leafValues></_></weakClassifiers></_>
    <!-- stage 3 -->
    <_>
      <maxWeakCount>4</maxWeakCount>
      <stageThreshold>-1.9397727251052856e+00</stageThreshold>
      <weakClassifiers>
        <_>
          <internalNodes>
            0 -1 41 -7.1668662130832672e-02</internalNodes>
          <leafValues>
            1.1451948881149292e+00 -1.2850667238235474e+00</leafValues></_>
        <_>
          <internalNodes>
            0 -1 54 -8.0704629421234131e-02</internalNodes>
          <leafValues>
            6.0879093408584595e-01 -8.9719361066818237e-01</leafValues></_>
        <_>
          <internalNodes>
            0 -1 55 4.1595317423343658e-02</internalNodes>
          <leafValues>
            -4.8450633883476257e-01 9.5775938034057617e-01</leafValues></_>
        <_>
          <internalNodes>
            0 -1 1 4.5914258807897568e-02</internalNodes>
          <leafValues>
            -5.5730789899826050e-01 7.2699391841888428e-01</leafValues></_></weakClassifiers></_>
    <!-- stage 4 -->
    <_>
      <maxWeakCount>3</maxWeakCount>
      <stageThreshold>-1.2909362316131592e+00</stageThreshold>
      <weakClassifiers>
        <_>
          <internalNodes>
            0 -1 22 -4.7232672572135925e-02</internalNodes>
          <leafValues>
            8.1858736276626587e-01 -1.2894678115844727e+00</leafValues></_>
        <_>
          <internalNodes>
            0 -1 84 -5.5685892701148987e-02</internalNodes>
          <leafValues>
            8.9020115137100220e-01 -6.0972279310226440e-01</leafValues></_>
        <_>
          <internalNodes>
            0 -1 57 4.1126150637865067e-02</internalNodes>
          <leafValues>
            -7.2025102376937866e-01 6.0825431346893311e-01</leafValues></_></weakClassifiers></_>
    <!-- stage 5 -->
    <_>
      <maxWeakCount>5</maxWeakCount>
      <stageThreshold>-2.2794454097747803e+00</stageThreshold>
      <weakClassifiers>
        <_>
          <internalNodes>
            0 -1 40 -1.0584747046232224e-01</internalNodes>
          <leafValues>
            9.9222189188003540e-01 -1.0877927541732788e+00</leafValues></_>
        <_>
          <internalNodes>
            0 -1 59 -6.0061670839786530e-02</internalNodes>
          <leafValues>
            6.9413304328918457e-01 -7.6923441886901855e-01</leafValues></_>
        <_>
          <internalNodes>
            0 -1 8 -5.8599757030606270e-03</internalNodes>
          <leafValues>
            -1.1159287691116333e+00 3.0097505450248718e-01</leafValues></_>
        <_>
          <internalNodes>
            0 -1 36 -6.9199085235595703e-02</internalNodes>
          <leafValues>
            4.0739470720291138e-01 -1.0391123294830322e+00</leafValues></_>
        <_>
          <internalNodes>
            0 -1 25 1.2352718040347099e-03</internalNodes>
          <leafValues>
            3.1571897864341736e-01 -1.2063927650451660e+00</leafValues></_></weakClassifiers></_>
    <!-- stage 6 -->
    <_>
      <maxWeakCount>5</maxWeakCount>
      <stageThreshold>-1.5942776203155518e+00</stageThreshold>
      <weakClassifiers>
        <_>
          <internalNodes>
            0 -1 75 -9.7859978675842285e-02</internalNodes>
          <leafValues>
            5.2202665805816650e-01 -1.2091985940933228e+00</leafValues></_>
        <_>
          <internalNodes>
            0 -1 26 -5.9682268649339676e-02</internalNodes>
          <leafValues>
            9.2759746313095093e-01 -4.4994467496871948e-01</leafValues></_>
        <_>
          <internalNodes>
            0 -1 19 1.9619604572653770e-03</internalNodes>
          <leafValues>
            2.4835747480392456e-01 -1.5810647010803223e+00</leafValues></_>
        <_>
          <internalNodes>
            0 -1 11 -5.6474050506949425e-03</internalNodes>
          <leafValues>
            -1.0030802488327026e+00 3.5471433401107788e-01</leafValues></_>
        <_>
          <internalNodes>
            0 -1 95 1.6850270330905914e-02</internalNodes>
          <leafValues>
            -4.3863266706466675e-01 8.1958842277526855e-01</leafValues></_></weakClassifiers></_>
    <!-- stage 7 -->
    <_>
      <maxWeakCount>6</maxWeakCount>
      <stageThreshold>-1.7686393260955811e+00</stageThreshold>
      <weakClassifiers>
        <_>
          <internalNodes>
            0 -1 42 -7.2922237217426300e-02</internalNodes>
          <leafValues>
            4.9441236257553101e-01 -1.0597578287124634e+00</leafValues></_>
        <_>
          <internalNodes>
            0 -1 71 -1.2277196347713470e-01</internalNodes>
          <leafValues>
            6.8922060728073120e-01 -5.0581383705139160e-01</leafValues></_>
        <_>
          <internalNodes>
            0 -1 5 -4.5620854943990707e-03</internalNodes>
          <leafValues>
            -1.7569913864135742e+00 2.2607441246509552e-01</leafValues></_>
        <_>
          <internalNodes>
            0 -1 15 -6.4399917609989643e-03</internalNodes>
          <leafValues>
            -1.2565768957138062e+00 3.0261376500129700e-01</leafValues></_>
        <_>
          <internalNodes>
            0 -1 46 6.6363319754600525e-02</internalNodes>
          <leafValues>
            -5.8559089899063110e-01 5.9389859437942505e-01</leafValues></_>
        <_>
          <internalNodes>
            0 -1 48 1.6833937261253595e-03</internalNodes>
          <leafValues>
            2.3353616893291473e-01 -1.9026517868041992e+00</leafValues></_></weakClassifiers></_>
    <!-- stage 8 -->
    <_>
      <maxWeakCount>5</maxWeakCount>
      <stageThreshold>-1.5325427055358887e+00</stageThreshold>
      <weakClassifiers>
        <_>
          <internalNodes>
            0 -1 44 -1.1897038668394089e-01</internalNodes>
          <leafValues>
            7.5960642099380493e-01 -8.6870747804641724e-01</leafValues></_>
        <_>
          <internalNodes>
            0 -1 21 -3.5751864314079285e-02</internalNodes>
          <leafValues>
            7.6430630683898926e-01 -4.4144907593727112e-01</leafValues></_>
        <_>
          <internalNodes>
            0 -1 89 -3.5430286079645157e-02</internalNodes>
          <leafValues>
            6.7301428318023682e-01 -4.4901585578918457e-01</leafValues></_>
        <_>
          <internalNodes>
            0 -1 16 -5.7952897623181343e-03</internalNodes>
          <leafValues>
            -1.1954883337020874e+00 2.7507764101028442e-01</leafValues></_>
        <_>
          <internalNodes>
            0 -1 12 1.4262292534112930e-03</internalNodes>
          <leafValues>
            4.2725557088851929e-01 -1.2542033195495605e+00</leafValues></_></weakClassifiers></_>
    <!-- stage 9 -->
    <_>
      <maxWeakCount>8</maxWeakCount>
      <stageThreshold>-1.4559614658355713e+00</stageThreshold>
      <weakClassifiers>
        <_>
          <internalNodes>
            0 -1 82 4.0307588875293732e-02</internalNodes>
          <leafValues>
            -7.9022520780563354e-01 7.2345948219299316e-01</leafValues></_>
        <_>
          <internalNodes>
            0 -1 80 4.6190381050109863e-02</internalNodes>
          <leafValues>
            -5.4211586713790894e-01 6.3368082046508789e-01</leafValues></_>
        <_>
          <internalNodes>
            0 -1 35 -5.9454001486301422e-02</internalNodes>
          <leafValues>
            3.1853848695755005e-01 -9.7513788938522339e-01</leafValues></_>
        <_>
          <internalNodes>
            0 -1 9 -9.5687620341777802e-03</internalNodes>
          <leafValues>
            -1.2414335012435913e+00 4.2247980833053589e-01</leafValues></_>
        <_>
          <internalNodes>
            0 -1 102 -4.6394001692533493e-03</internalNodes>
          <leafValues>
            -1.1482272148132324e+00 2.8740099072456360e-01</leafValues></_>
        <_>
          <internalNodes>
            0 -1 10 6.0379123315215111e-03</internalNodes>
          <leafValues>
            1.8862459063529968e-01 -1.1345556974411011e+00</leafValues></_>
        <_>
          <internalNodes>
            0 -1 23 -1.9757077097892761e-02</internalNodes>
          <leafValues>
            5.7822024822235107e-01 -4.0522205829620361e-01</leafValues></_>
        <_>
          <internalNodes>
            0 -1 61 9.7884722054004669e-03</internalNodes>
          <leafValues>
            -3.7576434016227722e-01 7.2847098112106323e-01</leafValues></_></weakClassifiers></_>
    <!-- stage 10 -->
    <_>
      <maxWeakCount>8</maxWeakCount>
      <stageThreshold>-1.4719606637954712e+00</stageThreshold>
      <weakClassifiers>
        <_>
          <internalNodes>
            0 -1 58 -1.6418409347534180e-01</internalNodes>
          <leafValues>
            3.1315359473228455e-01 -7.8748548030853271e-01</leafValues></_>
        <_>
          <internalNodes>
            0 -1 65 1.5988428145647049e-02</internalNodes>
          <leafValues>
            -8.0003291368484497e-01 3.2103642821311951e-01</leafValues></_>
        <_>
          <internalNodes>
            0 -1 91 2.8866656124591827e-02</internalNodes>
          <leafValues>
            -6.5649855136871338e-01 3.6649832129478455e-01</leafValues></_>
        <_>
          <internalNodes>
            0 -1 106 -9.4175990670919418e-03</internalNodes>
          <leafValues>
            -1.1902576684951782e+00 2.9717418551445007e-01</leafValues></_>
        <_>
          <internalNodes>
            0 -1 104 1.7730210674926639e-03</internalNodes>
          <leafValues>
            3.6736297607421875e-01 -1.2394291162490845e+00</leafValues></_>
        <_>
          <internalNodes>
            0 -1 47 -8.3365140017122030e-04</internalNodes>
          <leafValues>
            -1.0299826860427856e+00 2.3682714998722076e-01</leafValues></_>
        <_>
          <internalNodes>
            0 -1 33 4.5545371249318123e-03</internalNodes>
          <leafValues>
            2.4760869145393372e-01 -1.0673174858093262e+00</leafValues></_>
        <_>
          <internalNodes>
            0 -1 86 4.5069414773024619e-04</internalNodes>
          <leafValues>
            -3.8921776413917542e-01 5.6690603494644165e-01</leafValues></_></weakClassifiers></_>
    <!-- stage 11 -->
    <_>
      <maxWeakCount>6</maxWeakCount>
      <stageThreshold>-1.4197268486022949e+00</stageThreshold>
      <weakClassifiers>
        <_>
          <internalNodes>
            0 -1 39 -1.5103694796562195e-01</internalNodes>
          <leafValues>
            3.5154876112937927e-01 -7.5706386566162109e-01</leafValues></_>
        <_>
          <internalNodes>
            0 -1 53 -7.1754492819309235e-02</internalNodes>
          <leafValues>
            3.0201369524002075e-01 -1.3935014009475708e+00</leafValues></_>
        <_>
          <internalNodes>
            0 -1 103 -6.6870544105768204e-03</internalNodes>
          <leafValues>
            -1.0325380563735962e+00 2.9813861846923828e-01</leafValues></_>
        <_>
          <internalNodes>
            0 -1 29 2.6396340690553188e-03</internalNodes>
          <leafValues>
            2.4018904566764832e-01 -1.1157027482986450e+00</leafValues></_>
        <_>
          <internalNodes>
            0 -1 87 2.3464005440473557e-02</internalNodes>
          <leafValues>
            -4.0406000614166260e-01 5.3641057014465332e-01</leafValues></_>
        <_>
          <internalNodes>
            0 -1 0 -3.8571795448660851e-03</internalNodes>
          <leafValues>
            -1.0989443063735962e+00 2.7442601323127747e-01</leafValues></_></weakClassifiers></_>
    <!-- stage 12 -->
    <_>
      <maxWeakCount>7</maxWeakCount>
      <stageThreshold>-1.6271607875823975e+00</stageThreshold>
      <weakClassifiers>
        <_>
          <internalNodes>
            0 -1 96 2.2099368274211884e-02</internalNodes>
          <leafValues>
            -6.4754724502563477e-01 5.4216319322586060e-01</leafValues></_>
        <_>
          <internalNodes>
            0 -1 37 -3.7725180387496948e-02</internalNodes>
          <leafValues>
            -1.2461670637130737e+00 2.3475444316864014e-01</leafValues></_>
        <_>
          <internalNodes>
            0 -1 20 -1.0605458555801306e-05</internalNodes>
          <leafValues>
            4.0997186303138733e-01 -6.1439901590347290e-01</leafValues></_>
        <_>
          <internalNodes>
            0 -1 34 -2.7691056020557880e-03</internalNodes>
          <leafValues>
            -1.2527312040328979e+00 1.8229554593563080e-01</leafValues></_>
        <_>
          <internalNodes>
            0 -1 31 2.6776976883411407e-03</internalNodes>
          <leafValues>
            3.3155801892280579e-01 -9.5712822675704956e-01</leafValues></_>
        <_>
          <internalNodes>
            0 -1 38 -3.9054162800312042e-02</internalNodes>
          <leafValues>
            4.9156087636947632e-01 -4.8487797379493713e-01</leafValues></_>
        <_>
          <internalNodes>
            0 -1 107 -3.1019123271107674e-03</internalNodes>
          <leafValues>
            -1.1947275400161743e+00 2.1238936483860016e-01</leafValues></_></weakClassifiers></_>
    <!-- stage 13 -->
    <_>
      <maxWeakCount>6</maxWeakCount>
      <stageThreshold>-2.0606501102447510e+00</stageThreshold>
      <weakClassifiers>
        <_>
          <internalNodes>
            0 -1 94 4.4165089726448059e-02</internalNodes>
          <leafValues>
            -7.3950803279876709e-01 4.6884095668792725e-01</leafValues></_>
        <_>
          <internalNodes>
            0 -1 97 2.5962494313716888e-02</internalNodes>
          <leafValues>
            3.1537675857543945e-01 -9.1221755743026733e-01</leafValues></_>
        <_>
          <internalNodes>
            0 -1 70 7.0702930679544806e-04</internalNodes>
          <leafValues>
            -4.6327024698257446e-01 4.4880244135856628e-01</leafValues></_>
        <_>
          <internalNodes>
            0 -1 2 -4.8210951499640942e-03</internalNodes>
          <leafValues>
            -1.0403507947921753e+00 2.3087556660175323e-01</leafValues></_>
        <_>
          <internalNodes>
            0 -1 7 -1.2772410627803765e-05</internalNodes>
          <leafValues>
            5.0028645992279053e-01 -4.4772359728813171e-01</leafValues></_>
        <_>
          <internalNodes>
            0 -1 105 2.1814205683767796e-03</internalNodes>
          <leafValues>
            2.2432398796081543e-01 -9.5640045404434204e-01</leafValues></_></weakClassifiers></_>
    <!-- stage 14 -->
    <_>
      <maxWeakCount>8</maxWeakCount>
      <stageThreshold>-1.4201972484588623e+00</stageThreshold>
      <weakClassifiers>
        <_>
          <internalNodes>
            0 -1 73 3.0757617205381393e-02</internalNodes>
          <leafValues>
            -7.0825743675231934e-01 3.3017867803573608e-01</leafValues></_>
        <_>
          <internalNodes>
            0 -1 4 -6.2515534460544586e-02</internalNodes>
          <leafValues>
            1.9024735689163208e-01 -1.3938975334167480e+00</leafValues></_>
        <_>
          <internalNodes>
            0 -1 14 -1.9007610157132149e-02</internalNodes>
          <leafValues>
            -8.7886452674865723e-01 3.2136097550392151e-01</leafValues></_>
        <_>
          <internalNodes>
            0 -1 45 -1.5531512908637524e-02</internalNodes>
          <leafValues>
            3.1618982553482056e-01 -6.7362296581268311e-01</leafValues></_>
        <_>
          <internalNodes>
            0 -1 81 3.1983004882931709e-03</internalNodes>
          <leafValues>
            3.2380113005638123e-01 -7.8964918851852417e-01</leafValues></_>
        <_>
          <internalNodes>
            0 -1 100 4.0633459575474262e-03</internalNodes>
          <leafValues>
            2.9073813557624817e-01 -7.5714963674545288e-01</leafValues></_>
        <_>
          <internalNodes>
            0 -1 3 -8.4494091570377350e-03</internalNodes>
          <leafValues>
            7.2447490692138672e-01 -3.1627997756004333e-01</leafValues></_>
        <_>
          <internalNodes>
            0 -1 43 -3.4052200615406036e-02</internalNodes>
          <leafValues>
            1.0250110626220703e+00 -2.4671964347362518e-01</leafValues></_></weakClassifiers></_>
    <!-- stage 15 -->
    <_>
      <maxWeakCount>7</maxWeakCount>
      <stageThreshold>-1.3655705451965332e+00</stageThreshold>
      <weakClassifiers>
        <_>
          <internalNodes>
            0 -1 72 4.8785440623760223e-02</internalNodes>
          <leafValues>
            -7.0666152238845825e-01 2.9666343331336975e-01</leafValues></_>
        <_>
          <internalNodes>
            0 -1 78 5.9868469834327698e-02</internalNodes>
          <leafValues>
            -4.6770593523979187e-01 3.8906174898147583e-01</leafValues></_>
        <_>
          <internalNodes>
            0 -1 98 2.0690765231847763e-02</internalNodes>
          <leafValues>
            1.7505396902561188e-01 -1.3563168048858643e+00</leafValues></_>
        <_>
          <internalNodes>
            0 -1 109 -4.6770386397838593e-03</internalNodes>
          <leafValues>
            -9.9332880973815918e-01 2.2965764999389648e-01</leafValues></_>
        <_>
          <internalNodes>
            0 -1 99 -7.4977084295824170e-05</internalNodes>
          <leafValues>
            3.2807034254074097e-01 -6.0110646486282349e-01</leafValues></_>
        <_>
          <internalNodes>
            0 -1 79 -1.2516736984252930e-02</internalNodes>
          <leafValues>
            5.2194052934646606e-01 -3.4946936368942261e-01</leafValues></_>
        <_>
          <internalNodes>
            0 -1 90 -3.0942019075155258e-02</internalNodes>
          <leafValues>
            1.1900174617767334e+00 -2.2293908894062042e-01</leafValues></_></weakClassifiers></_>
    <!-- stage 16 -->
    <_>
      <maxWeakCount>9</maxWeakCount>
      <stageThreshold>-1.4701732397079468e+00</stageThreshold>
      <weakClassifiers>
        <_>
          <internalNodes>
            0 -1 83 1.0761174559593201e-01</internalNodes>
          <leafValues>
            -6.3483834266662598e-01 5.2708023786544800e-01</leafValues></_>
        <_>
          <internalNodes>
            0 -1 108 1.4579461421817541e-03</internalNodes>
          <leafValues>
            2.0302672684192657e-01 -9.9381142854690552e-01</leafValues></_>
        <_>
          <internalNodes>
            0 -1 28 -1.1054644128307700e-03</internalNodes>
          <leafValues>
            -1.0325868129730225e+00 2.0065337419509888e-01</leafValues></_>
        <_>
          <internalNodes>
            0 -1 69 1.5147542580962181e-03</internalNodes>
          <leafValues>
            -3.6450797319412231e-01 5.4350954294204712e-01</leafValues></_>
        <_>
          <internalNodes>
            0 -1 77 1.9124031066894531e-02</internalNodes>
          <leafValues>
            -3.9333441853523254e-01 5.7422870397567749e-01</leafValues></_>
        <_>
          <internalNodes>
            0 -1 63 -6.0962862335145473e-05</internalNodes>
          <leafValues>
            4.9700567126274109e-01 -4.3040376901626587e-01</leafValues></_>
        <_>
          <internalNodes>
            0 -1 88 7.8439656645059586e-03</internalNodes>
          <leafValues>
            -2.0430672168731689e-01 1.1931337118148804e+00</leafValues></_>
        <_>
          <internalNodes>
            0 -1 30 3.1277153175324202e-03</internalNodes>
          <leafValues>
            2.0370061695575714e-01 -1.0254186391830444e+00</leafValues></_>
        <_>
          <internalNodes>
            0 -1 18 -4.4894070015288889e-05</internalNodes>
          <leafValues>
            2.7093902230262756e-01 -7.4242615699768066e-01</leafValues></_></weakClassifiers></_>
    <!-- stage 17 -->
    <_>
      <maxWeakCount>9</maxWeakCount>
      <stageThreshold>-1.5052417516708374e+00</stageThreshold>
      <weakClassifiers>
        <_>
          <internalNodes>
            0 -1 66 -1.6239169985055923e-02</internalNodes>
          <leafValues>
            1.5492948293685913e+00 -6.5724426507949829e-01</leafValues></_>
        <_>
          <internalNodes>
            0 -1 17 -4.1300742886960506e-03</internalNodes>
          <leafValues>
            -7.8346258401870728e-01 2.4142682552337646e-01</leafValues></_>
        <_>
          <internalNodes>
            0 -1 85 -2.8261123225092888e-02</internalNodes>
          <leafValues>
            3.0761894583702087e-01 -8.0824983119964600e-01</leafValues></_>
        <_>
          <internalNodes>
            0 -1 49 2.5751413777470589e-02</internalNodes>
          <leafValues>
            -4.4503816962242126e-01 5.4377317428588867e-01</leafValues></_>
        <_>
          <internalNodes>
            0 -1 93 -3.7897413130849600e-04</internalNodes>
          <leafValues>
            5.7681065797805786e-01 -3.9816001057624817e-01</leafValues></_>
        <_>
          <internalNodes>
            0 -1 52 1.3181031681597233e-03</internalNodes>
          <leafValues>
            2.6263374090194702e-01 -1.1855427026748657e+00</leafValues></_>
        <_>
          <internalNodes>
            0 -1 32 -8.2344999536871910e-03</internalNodes>
          <leafValues>
            -2.0639331340789795e+00 1.9479797780513763e-01</leafValues></_>
        <_>
          <internalNodes>
            0 -1 50 -6.8545818794518709e-04</internalNodes>
          <leafValues>
            9.4965177774429321e-01 -3.5079938173294067e-01</leafValues></_>
        <_>
          <internalNodes>
            0 -1 27 1.0420933365821838e-02</internalNodes>
          <leafValues>
            -5.1275211572647095e-01 7.5657063722610474e-01</leafValues></_></weakClassifiers></_>
    <!-- stage 18 -->
    <_>
      <maxWeakCount>8</maxWeakCount>
      <stageThreshold>-1.4773342609405518e+00</stageThreshold>
      <weakClassifiers>
        <_>
          <internalNodes>
            0 -1 67 -1.1596501804888248e-02</internalNodes>
          <leafValues>
            5.7564578056335449e+00 -6.6212946176528931e-01</leafValues></_>
        <_>
          <internalNodes>
            0 -1 60 5.5620323866605759e-02</internalNodes>
          <leafValues>
            -3.9976388216018677e-01 7.1684640645980835e-01</leafValues></_>
        <_>
          <internalNodes>
            0 -1 13 -1.1668297462165356e-02</internalNodes>
          <leafValues>
            -1.2093009948730469e+00 3.2235649228096008e-01</leafValues></_>
        <_>
          <internalNodes>
            0 -1 6 7.6069834176450968e-04</internalNodes>
          <leafValues>
            4.9630501866340637e-01 -6.4708030223846436e-01</leafValues></_>
        <_>
          <internalNodes>
            0 -1 92 1.0760617442429066e-05</internalNodes>
          <leafValues>
            -5.4810154438018799e-01 7.2441554069519043e-01</leafValues></_>
        <_>
          <internalNodes>
            0 -1 74 4.2104609310626984e-03</internalNodes>
          <leafValues>
            -5.8824199438095093e-01 7.3900824785232544e-01</leafValues></_>
        <_>
          <internalNodes>
            0 -1 51 1.5689046995248646e-04</internalNodes>
          <leafValues>
            -4.2794218659400940e-01 1.3330683708190918e+00</leafValues></_>
        <_>
          <internalNodes>
            0 -1 64 8.9288510382175446e-02</internalNodes>
          <leafValues>
            -8.0166792869567871e-01 6.1609870195388794e-01</leafValues></_></weakClassifiers></_></stages>
  <features>
    <_>
      <rects>
        <_>
          0 0 1 36 -1.</_>
        <_>
          0 12 1 12 3.</_></rects>
      <tilted>0</tilted></_>
    <_>
      <rects>
        <_>
          0 1 20 14 -1.</_>
        <_>
          0 8 20 7 2.</_></rects>
      <tilted>0</tilted></_>
    <_>
      <rects>
        <_>
          0 5 1 28 -1.</_>
        <_>
          0 19 1 14 2.</_></rects>
      <tilted>0</tilted></_>
    <_>
      <rects>
        <_>
          0 5 8 17 -1.</_>
        <_>
          4 5 4 17 2.</_></rects>
      <tilted>0</tilted></_>
    <_>
      <rects>
        <_>
          0 6 20 38 -1.</_>
        <_>
          0 25 20 19 2.</_></rects>
      <tilted>0</tilted></_>
    <_>
      <rects>
        <_>
          0 8 1 21 -1.</_>
        <_>
          0 15 1 7 3.</_></rects>
      <tilted>0</tilted></_>
    <_>
      <rects>
        <_>
          0 8 4 4 -1.</_>
        <_>
          2 8 2 4 2.</_></rects>
      <tilted>0</tilted></_>
    <_>
      <rects>
        <_>
          0 8 6 16 -1.</_>
        <_>
          3 8 3 16 2.</_></rects>
      <tilted>0</tilted></_>
    <_>
      <rects>
        <_>
          0 10 2 20 -1.</_>
        <_>
          0 20 2 10 2.</_></rects>
      <tilted>0</tilted></_>
    <_>
      <rects>
        <_>
          0 10 2 28 -1.</_>
        <_>
          0 24 2 14 2.</_></rects>
      <tilted>0</tilted></_>
    <_>
      <rects>
        <_>
          0 11 1 39 -1.</_>
        <_>
          0 24 1 13 3.</_></rects>
      <tilted>0</tilted></_>
    <_>
      <rects>
        <_>
          0 11 1 32 -1.</_>
        <_>
          0 27 1 16 2.</_></rects>
      <tilted>0</tilted></_>
    <_>
      <rects>
        <_>
          0 11 1 36 -1.</_>
        <_>
          0 29 1 18 2.</_></rects>
      <tilted>0</tilted></_>
    <_>
      <rects>
        <_>
          0 13 3 36 -1.</_>
        <_>
          0 25 3 12 3.</_></rects>
      <tilted>0</tilted></_>
    <_>
      <rects>
        <_>
          0 14 3 34 -1.</_>
        <_>
          0 31 3 17 2.</_></rects>
      <tilted>0</tilted></_>
    <_>
      <rects>
        <_>
          0 15 2 16 -1.</_>
        <_>
          0 23 2 8 2.</_></rects>
      <tilted>0</tilted></_>
    <_>
      <rects>
        <_>
          0 16 1 28 -1.</_>
        <_>
          0 30 1 14 2.</_></rects>
      <tilted>0</tilted></_>
    <_>
      <rects>
        <_>
          0 17 1 28 -1.</_>
        <_>
          0 31 1 14 2.</_></rects>
      <tilted>0</tilted></_>
    <_>
      <rects>
        <_>
          0 17 1 32 -1.</_>
        <_>
          0 33 1 16 2.</_></rects>
      <tilted>0</tilted></_>
    <_>
      <rects>
        <_>
          0 19 1 14 -1.</_>
        <_>
          0 26 1 7 2.</_></rects>
      <tilted>0</tilted></_>
    <_>
      <rects>
        <_>
          0 23 1 26 -1.</_>
        <_>
          0 36 1 13 2.</_></rects>
      <tilted>0</tilted></_>
    <_>
      <rects>
        <_>
          0 26 15 4 -1.</_>
        <_>
          5 26 5 4 3.</_></rects>
      <tilted>0</tilted></_>
    <_>
      <rects>
        <_>
          0 26 12 6 -1.</_>
        <_>
          6 26 6 6 2.</_></rects>
      <tilted>0</tilted></_>
    <_>
      <rects>
        <_>
          0 27 12 2 -1.</_>
        <_>
          6 27 6 2 2.</_></rects>
      <tilted>0</tilted></_>
    <_>
      <rects>
        <_>
          0 27 12 3 -1.</_>
        <_>
          6 27 6 3 2.</_></rects>
      <tilted>0</tilted></_>
    <_>
      <rects>
        <_>
          0 28 1 16 -1.</_>
        <_>
          0 36 1 8 2.</_></rects>
      <tilted>0</tilted></_>
    <_>
      <rects>
        <_>
          0 28 18 4 -1.</_>
        <_>
          6 28 6 4 3.</_></rects>
      <tilted>0</tilted></_>
    <_>
      <rects>
        <_>
          0 29 9 6 -1.</_>
        <_>
          3 29 3 6 3.</_></rects>
      <tilted>0</tilted></_>
    <_>
      <rects>
        <_>
          0 30 1 6 -1.</_>
        <_>
          0 33 1 3 2.</_></rects>
      <tilted>0</tilted></_>
    <_>
      <rects>
        <_>
          0 42 2 8 -1.</_>
        <_>
          0 46 2 4 2.</_></rects>
      <tilted>0</tilted></_>
    <_>
      <rects>
        <_>
          0 45 8 5 -1.</_>
        <_>
          4 45 4 5 2.</_></rects>
      <tilted>0</tilted></_>
    <_>
      <rects>
        <_>
          0 47 12 3 -1.</_>
        <_>
          6 47 6 3 2.</_></rects>
      <tilted>0</tilted></_>
    <_>
      <rects>
        <_>
          0 48 14 2 -1.</_>
        <_>
          7 48 7 2 2.</_></rects>
      <tilted>0</tilted></_>
    <_>
      <rects>
        <_>
          0 48 18 2 -1.</_>
        <_>
          9 48 9 2 2.</_></rects>
      <tilted>0</tilted></_>
    <_>
      <rects>
        <_>
          0 49 14 1 -1.</_>
        <_>
          7 49 7 1 2.</_></rects>
      <tilted>0</tilted></_>
    <_>
      <rects>
        <_>
          1 6 16 26 -1.</_>
        <_>
          1 19 16 13 2.</_></rects>
      <tilted>0</tilted></_>
    <_>
      <rects>
        <_>
          1 7 17 42 -1.</_>
        <_>
          1 21 17 14 3.</_></rects>
      <tilted>0</tilted></_>
    <_>
      <rects>
        <_>
          1 18 19 28 -1.</_>
        <_>
          1 32 19 14 2.</_></rects>
      <tilted>0</tilted></_>
    <_>
      <rects>
        <_>
          1 20 10 12 -1.</_>
        <_>
          1 20 5 6 2.</_>
        <_>
          6 26 5 6 2.</_></rects>
      <tilted>0</tilted></_>
    <_>
      <rects>
        <_>
          1 24 18 9 -1.</_>
        <_>
          7 24 6 9 3.</_></rects>
      <tilted>0</tilted></_>
    <_>
      <rects>
        <_>
          1 25 18 7 -1.</_>
        <_>
          7 25 6 7 3.</_></rects>
      <tilted>0</tilted></_>
    <_>
      <rects>
        <_>
          1 26 18 5 -1.</_>
        <_>
          7 26 6 5 3.</_></rects>
      <tilted>0</tilted></_>
    <_>
      <rects>
        <_>
          1 27 18 4 -1.</_>
        <_>
          7 27 6 4 3.</_></rects>
      <tilted>0</tilted></_>
    <_>
      <rects>
        <_>
          2 18 6 14 -1.</_>
        <_>
          2 18 3 7 2.</_>
        <_>
          5 25 3 7 2.</_></rects>
      <tilted>0</tilted></_>
    <_>
      <rects>
        <_>
          2 26 18 7 -1.</_>
        <_>
          8 26 6 7 3.</_></rects>
      <tilted>0</tilted></_>
    <_>
      <rects>
        <_>
          2 27 18 1 -1.</_>
        <_>
          8 27 6 1 3.</_></rects>
      <tilted>0</tilted></_>
    <_>
      <rects>
        <_>
          3 26 13 24 -1.</_>
        <_>
          3 38 13 12 2.</_></rects>
      <tilted>0</tilted></_>
    <_>
      <rects>
        <_>
          3 48 4 2 -1.</_>
        <_>
          5 48 2 2 2.</_></rects>
      <tilted>0</tilted></_>
    <_>
      <rects>
        <_>
          3 49 9 1 -1.</_>
        <_>
          6 49 3 1 3.</_></rects>
      <tilted>0</tilted></_>
    <_>
      <rects>
        <_>
          4 5 11 15 -1.</_>
        <_>
          4 10 11 5 3.</_></rects>
      <tilted>0</tilted></_>
    <_>
      <rects>
        <_>
          4 28 3 7 -1.</_>
        <_>
          5 28 1 7 3.</_></rects>
      <tilted>0</tilted></_>
    <_>
      <rects>
        <_>
          4 28 6 3 -1.</_>
        <_>
          4 29 6 1 3.</_></rects>
      <tilted>0</tilted></_>
    <_>
      <rects>
        <_>
          4 49 8 1 -1.</_>
        <_>
          8 49 4 1 2.</_></rects>
      <tilted>0</tilted></_>
    <_>
      <rects>
        <_>
          5 7 11 32 -1.</_>
        <_>
          5 23 11 16 2.</_></rects>
      <tilted>0</tilted></_>
    <_>
      <rects>
        <_>
          5 9 13 24 -1.</_>
        <_>
          5 21 13 12 2.</_></rects>
      <tilted>0</tilted></_>
    <_>
      <rects>
        <_>
          5 17 10 12 -1.</_>
        <_>
          5 21 10 4 3.</_></rects>
      <tilted>0</tilted></_>
    <_>
      <rects>
        <_>
          5 27 9 20 -1.</_>
        <_>
          5 37 9 10 2.</_></rects>
      <tilted>0</tilted></_>
    <_>
      <rects>
        <_>
          6 2 13 21 -1.</_>
        <_>
          6 9 13 7 3.</_></rects>
      <tilted>0</tilted></_>
    <_>
      <rects>
        <_>
          6 17 7 24 -1.</_>
        <_>
          6 25 7 8 3.</_></rects>
      <tilted>0</tilted></_>
    <_>
      <rects>
        <_>
          6 18 10 14 -1.</_>
        <_>
          6 25 10 7 2.</_></rects>
      <tilted>0</tilted></_>
    <_>
      <rects>
        <_>
          6 18 13 12 -1.</_>
        <_>
          6 22 13 4 3.</_></rects>
      <tilted>0</tilted></_>
    <_>
      <rects>
        <_>
          6 28 10 12 -1.</_>
        <_>
          6 28 5 6 2.</_>
        <_>
          11 34 5 6 2.</_></rects>
      <tilted>0</tilted></_>
    <_>
      <rects>
        <_>
          6 28 8 8 -1.</_>
        <_>
          6 32 8 4 2.</_></rects>
      <tilted>0</tilted></_>
    <_>
      <rects>
        <_>
          6 34 8 8 -1.</_>
        <_>
          6 38 8 4 2.</_></rects>
      <tilted>0</tilted></_>
    <_>
      <rects>
        <_>
          7 0 8 33 -1.</_>
        <_>
          7 11 8 11 3.</_></rects>
      <tilted>0</tilted></_>
    <_>
      <rects>
        <_>
          7 0 13 24 -1.</_>
        <_>
          7 8 13 8 3.</_></rects>
      <tilted>0</tilted></_>
    <_>
      <rects>
        <_>
          7 2 6 13 -1.</_>
        <_>
          9 2 2 13 3.</_></rects>
      <tilted>0</tilted></_>
    <_>
      <rects>
        <_>
          7 4 6 10 -1.</_>
        <_>
          9 4 2 10 3.</_></rects>
      <tilted>0</tilted></_>
    <_>
      <rects>
        <_>
          7 12 6 24 -1.</_>
        <_>
          7 24 6 12 2.</_></rects>
      <tilted>0</tilted></_>
    <_>
      <rects>
        <_>
          7 17 5 6 -1.</_>
        <_>
          7 20 5 3 2.</_></rects>
      <tilted>0</tilted></_>
    <_>
      <rects>
        <_>
          7 19 9 4 -1.</_>
        <_>
          7 21 9 2 2.</_></rects>
      <tilted>0</tilted></_>
    <_>
      <rects>
        <_>
          7 19 10 21 -1.</_>
        <_>
          7 26 10 7 3.</_></rects>
      <tilted>0</tilted></_>
    <_>
      <rects>
        <_>
          8 3 5 15 -1.</_>
        <_>
          8 8 5 5 3.</_></rects>
      <tilted>0</tilted></_>
    <_>
      <rects>
        <_>
          8 6 7 9 -1.</_>
        <_>
          8 9 7 3 3.</_></rects>
      <tilted>0</tilted></_>
    <_>
      <rects>
        <_>
          8 14 1 36 -1.</_>
        <_>
          8 32 1 18 2.</_></rects>
      <tilted>0</tilted></_>
    <_>
      <rects>
        <_>
          8 17 5 24 -1.</_>
        <_>
          8 25 5 8 3.</_></rects>
      <tilted>0</tilted></_>
    <_>
      <rects>
        <_>
          8 19 6 21 -1.</_>
        <_>
          8 26 6 7 3.</_></rects>
      <tilted>0</tilted></_>
    <_>
      <rects>
        <_>
          8 19 12 8 -1.</_>
        <_>
          14 19 6 8 2.</_></rects>
      <tilted>0</tilted></_>
    <_>
      <rects>
        <_>
          8 24 12 8 -1.</_>
        <_>
          14 24 6 8 2.</_></rects>
      <tilted>0</tilted></_>
    <_>
      <rects>
        <_>
          8 25 2 9 -1.</_>
        <_>
          8 28 2 3 3.</_></rects>
      <tilted>0</tilted></_>
    <_>
      <rects>
        <_>
          8 26 12 5 -1.</_>
        <_>
          14 26 6 5 2.</_></rects>
      <tilted>0</tilted></_>
    <_>
      <rects>
        <_>
          8 47 12 3 -1.</_>
        <_>
          14 47 6 3 2.</_></rects>
      <tilted>0</tilted></_>
    <_>
      <rects>
        <_>
          9 3 5 15 -1.</_>
        <_>
          9 8 5 5 3.</_></rects>
      <tilted>0</tilted></_>
    <_>
      <rects>
        <_>
          9 9 10 34 -1.</_>
        <_>
          9 9 5 17 2.</_>
        <_>
          14 26 5 17 2.</_></rects>
      <tilted>0</tilted></_>
    <_>
      <rects>
        <_>
          9 20 4 18 -1.</_>
        <_>
          9 26 4 6 3.</_></rects>
      <tilted>0</tilted></_>
    <_>
      <rects>
        <_>
          9 21 3 15 -1.</_>
        <_>
          9 26 3 5 3.</_></rects>
      <tilted>0</tilted></_>
    <_>
      <rects>
        <_>
          9 21 4 2 -1.</_>
        <_>
          9 22 4 1 2.</_></rects>
      <tilted>0</tilted></_>
    <_>
      <rects>
        <_>
          9 29 8 12 -1.</_>
        <_>
          9 33 8 4 3.</_></rects>
      <tilted>0</tilted></_>
    <_>
      <rects>
        <_>
          9 35 6 7 -1.</_>
        <_>
          11 35 2 7 3.</_></rects>
      <tilted>0</tilted></_>
    <_>
      <rects>
        <_>
          10 19 2 18 -1.</_>
        <_>
          10 25 2 6 3.</_></rects>
      <tilted>0</tilted></_>
    <_>
      <rects>
        <_>
          10 21 9 10 -1.</_>
        <_>
          13 21 3 10 3.</_></rects>
      <tilted>0</tilted></_>
    <_>
      <rects>
        <_>
          10 25 10 25 -1.</_>
        <_>
          15 25 5 25 2.</_></rects>
      <tilted>0</tilted></_>
    <_>
      <rects>
        <_>
          10 48 1 2 -1.</_>
        <_>
          10 49 1 1 2.</_></rects>
      <tilted>0</tilted></_>
    <_>
      <rects>
        <_>
          11 17 6 4 -1.</_>
        <_>
          14 17 3 4 2.</_></rects>
      <tilted>0</tilted></_>
    <_>
      <rects>
        <_>
          11 26 8 6 -1.</_>
        <_>
          15 26 4 6 2.</_></rects>
      <tilted>0</tilted></_>
    <_>
      <rects>
        <_>
          11 27 8 3 -1.</_>
        <_>
          15 27 4 3 2.</_></rects>
      <tilted>0</tilted></_>
    <_>
      <rects>
        <_>
          13 25 4 7 -1.</_>
        <_>
          15 25 2 7 2.</_></rects>
      <tilted>0</tilted></_>
    <_>
      <rects>
        <_>
          17 3 3 33 -1.</_>
        <_>
          17 14 3 11 3.</_></rects>
      <tilted>0</tilted></_>
    <_>
      <rects>
        <_>
          18 7 2 36 -1.</_>
        <_>
          18 19 2 12 3.</_></rects>
      <tilted>0</tilted></_>
    <_>
      <rects>
        <_>
          18 27 2 22 -1.</_>
        <_>
          18 38 2 11 2.</_></rects>
      <tilted>0</tilted></_>
    <_>
      <rects>
        <_>
          19 0 1 24 -1.</_>
        <_>
          19 8 1 8 3.</_></rects>
      <tilted>0</tilted></_>
    <_>
      <rects>
        <_>
          19 3 1 36 -1.</_>
        <_>
          19 21 1 18 2.</_></rects>
      <tilted>0</tilted></_>
    <_>
      <rects>
        <_>
          19 4 1 42 -1.</_>
        <_>
          19 18 1 14 3.</_></rects>
      <tilted>0</tilted></_>
    <_>
      <rects>
        <_>
          19 8 1 34 -1.</_>
        <_>
          19 25 1 17 2.</_></rects>
      <tilted>0</tilted></_>
    <_>
      <rects>
        <_>
          19 13 1 36 -1.</_>
        <_>
          19 31 1 18 2.</_></rects>
      <tilted>0</tilted></_>
    <_>
      <rects>
        <_>
          19 14 1 24 -1.</_>
        <_>
          19 26 1 12 2.</_></rects>
      <tilted>0</tilted></_>
    <_>
      <rects>
        <_>
          19 14 1 36 -1.</_>
        <_>
          19 32 1 18 2.</_></rects>
      <tilted>0</tilted></_>
    <_>
      <rects>
        <_>
          19 28 1 15 -1.</_>
        <_>
          19 33 1 5 3.</_></rects>
      <tilted>0</tilted></_>
    <_>
      <rects>
        <_>
          19 29 1 10 -1.</_>
        <_>
          19 34 1 5 2.</_></rects>
      <tilted>0</tilted></_>
    <_>
      <rects>
        <_>
          19 32 1 18 -1.</_>
        <_>
          19 41 1 9 2.</_></rects>
      <tilted>0</tilted></_></features></cascade>
</opencv_storage>
