<?xml version="1.0"?>
<opencv_storage>
<opencv_ml_boost>
  <format>3</format>
  <is_classifier>1</is_classifier>
  <var_all>238</var_all>
  <var_count>237</var_count>
  <ord_var_count>237</ord_var_count>
  <cat_var_count>1</cat_var_count>
  <training_params>
    <boosting_type>RealAdaboost</boosting_type>
    <use_surrogates>0</use_surrogates>
    <max_categories>10</max_categories>
    <regression_accuracy>9.9999997764825821e-003</regression_accuracy>
    <max_depth>2</max_depth>
    <min_sample_count>10</min_sample_count>
    <cross_validation_folds>0</cross_validation_folds>
    <weight_trimming_rate>9.7999999999999998e-001</weight_trimming_rate></training_params>
  <global_var_idx>1</global_var_idx>
  <var_idx>
    0 1 2 3 4 5 6 7 8 9 10 11 12 13 14 15 16 17 18 19 20 21 22 23 24 25
    26 27 28 29 30 31 32 33 34 35 36 37 38 39 40 41 42 43 44 45 46 47 48
    49 50 51 52 53 54 55 56 57 58 59 60 61 62 63 64 65 66 67 68 69 70 71
    72 73 74 75 76 77 78 79 80 81 82 83 84 85 86 87 88 89 90 91 92 93 94
    95 96 97 98 99 100 101 102 103 104 105 106 107 108 109 110 111 112
    113 114 115 116 117 118 119 120 121 122 123 124 125 126 127 128 129
    130 131 132 133 134 135 136 137 138 139 140 141 142 143 144 145 146
    147 148 149 150 151 152 153 154 155 156 157 158 159 160 161 162 163
    164 165 166 167 168 169 170 171 172 173 174 175 176 177 178 179 180
    181 182 183 184 185 186 187 188 189 190 191 192 193 194 195 196 197
    198 199 200 201 202 203 204 205 206 207 208 209 210 211 212 213 214
    215 216 217 218 219 220 221 222 223 224 225 226 227 228 229 230 231
    232 233 234 235 236</var_idx>
  <var_type>
    0 0 0 0 0 0 0 0 0 0 0 0 0 0 0 0 0 0 0 0 0 0 0 0 0 0 0 0 0 0 0 0 0 0
    0 0 0 0 0 0 0 0 0 0 0 0 0 0 0 0 0 0 0 0 0 0 0 0 0 0 0 0 0 0 0 0 0 0
    0 0 0 0 0 0 0 0 0 0 0 0 0 0 0 0 0 0 0 0 0 0 0 0 0 0 0 0 0 0 0 0 0 0
    0 0 0 0 0 0 0 0 0 0 0 0 0 0 0 0 0 0 0 0 0 0 0 0 0 0 0 0 0 0 0 0 0 0
    0 0 0 0 0 0 0 0 0 0 0 0 0 0 0 0 0 0 0 0 0 0 0 0 0 0 0 0 0 0 0 0 0 0
    0 0 0 0 0 0 0 0 0 0 0 0 0 0 0 0 0 0 0 0 0 0 0 0 0 0 0 0 0 0 0 0 0 0
    0 0 0 0 0 0 0 0 0 0 0 0 0 0 0 0 0 0 0 0 0 0 0 0 0 0 0 0 0 0 0 0 0 1</var_type>
  <cat_ofs>
    0 0 0 0 0 0 0 0 0 0 0 0 0 0 0 0 0 0 0 0 0 0 0 0 0 0 0 0 0 0 0 0 0 0
    0 0 0 0 0 0 0 0 0 0 0 0 0 0 0 0 0 0 0 0 0 0 0 0 0 0 0 0 0 0 0 0 0 0
    0 0 0 0 0 0 0 0 0 0 0 0 0 0 0 0 0 0 0 0 0 0 0 0 0 0 0 0 0 0 0 0 0 0
    0 0 0 0 0 0 0 0 0 0 0 0 0 0 0 0 0 0 0 0 0 0 0 0 0 0 0 0 0 0 0 0 0 0
    0 0 0 0 0 0 0 0 0 0 0 0 0 0 0 0 0 0 0 0 0 0 0 0 0 0 0 0 0 0 0 0 0 0
    0 0 0 0 0 0 0 0 0 0 0 0 0 0 0 0 0 0 0 0 0 0 0 0 0 0 0 0 0 0 0 0 0 0
    0 0 0 0 0 0 0 0 0 0 0 0 0 0 0 0 0 0 0 0 0 0 0 0 0 0 0 0 0 0 0 0 0 0
    0 0 0 0 0 0 0 0 0 0 0 0 0 0 0 0 0 0 0 0 0 0 0 0 0 0 0 0 0 0 0 0 0 0
    0 0 0 0 0 0 0 0 0 0 0 0 0 0 0 0 0 0 0 0 0 0 0 0 0 0 0 0 0 0 0 0 0 0
    0 0 0 0 0 0 0 0 0 0 0 0 0 0 0 0 0 0 0 0 0 0 0 0 0 0 0 0 0 0 0 0 0 0
    0 0 0 0 0 0 0 0 0 0 0 0 0 0 0 0 0 0 0 0 0 0 0 0 0 0 0 0 0 0 0 0 0 0
    0 0 0 0 0 0 0 0 0 0 0 0 0 0 0 0 0 0 0 0 0 0 0 0 0 0 0 0 0 0 0 0 0 0
    0 0 0 0 0 0 0 0 0 0 0 0 0 0 0 0 0 0 0 0 0 0 0 0 0 0 0 0 0 0 0 0 0 0
    0 0 0 0 0 0 0 0 0 0 0 0 0 0 0 0 0 0 0 0 0 0 0 0 0 0 0 0 0 0 0 0</cat_ofs>
  <class_labels>
    0 1</class_labels>
  <missing_subst>
    0. 0. 0. 0. 0. 0. 0. 0. 0. 0. 0. 0. 0. 0. 0. 0. 0. 0. 0. 0. 0. 0. 0.
    0. 0. 0. 0. 0. 0. 0. 0. 0. 0. 0. 0. 0. 0. 0. 0. 0. 0. 0. 0. 0. 0. 0.
    0. 0. 0. 0. 0. 0. 0. 0. 0. 0. 0. 0. 0. 0. 0. 0. 0. 0. 0. 0. 0. 0. 0.
    0. 0. 0. 0. 0. 0. 0. 0. 0. 0. 0. 0. 0. 0. 0. 0. 0. 0. 0. 0. 0. 0. 0.
    0. 0. 0. 0. 0. 0. 0. 0. 0. 0. 0. 0. 0. 0. 0. 0. 0. 0. 0. 0. 0. 0. 0.
    0. 0. 0. 0. 0. 0. 0. 0. 0. 0. 0. 0. 0. 0. 0. 0. 0. 0. 0. 0. 0. 0. 0.
    0. 0. 0. 0. 0. 0. 0. 0. 0. 0. 0. 0. 0. 0. 0. 0. 0. 0. 0. 0. 0. 0. 0.
    0. 0. 0. 0. 0. 0. 0. 0. 0. 0. 0. 0. 0. 0. 0. 0. 0. 0. 0. 0. 0. 0. 0.
    0. 0. 0. 0. 0. 0. 0. 0. 0. 0. 0. 0. 0. 0. 0. 0. 0. 0. 0. 0. 0. 0. 0.
    0. 0. 0. 0. 0. 0. 0. 0. 0. 0. 0. 0. 0. 0. 0. 0. 0. 0. 0. 0. 0. 0. 0.
    0. 0. 0. 0. 0. 0. 0. 0.</missing_subst>
  <ntrees>4</ntrees>
  <trees>
    <_>
      <nodes>
        <_>
          <depth>0</depth>
          <value>-3.4657359027996332e-001</value>
          <splits>
            <_><var>93</var>
              <quality>7.3236227035522461e-001</quality>
              <le>-1.0518940165638924e-002</le></_></splits></_>
        <_>
          <depth>1</depth>
          <value>1.6181122316014214e+000</value>
          <splits>
            <_><var>62</var>
              <quality>2.6008030772209167e-001</quality>
              <le>1.7954830080270767e-002</le></_></splits></_>
        <_>
          <depth>2</depth>
          <value>2.1048277043665626e+000</value></_>
        <_>
          <depth>2</depth>
          <value>-6.0198640216296784e-001</value></_>
        <_>
          <depth>1</depth>
          <value>-1.1795132019494732e+000</value>
          <splits>
            <_><var>57</var>
              <quality>5.4838782548904419e-001</quality>
              <le>-7.9710990190505981e-002</le></_></splits></_>
        <_>
          <depth>2</depth>
          <value>5.7564577324623896e+000</value></_>
        <_>
          <depth>2</depth>
          <value>-1.3360590959380476e+000</value></_></nodes></_>
    <_>
      <nodes>
        <_>
          <depth>0</depth>
          <value>7.8021252183039613e-009</value>
          <splits>
            <_><var>150</var>
              <quality>2.8426420688629150e-001</quality>
              <le>-4.5273870229721069e-002</le></_></splits></_>
        <_>
          <depth>1</depth>
          <value>5.5315034613024650e-001</value>
          <splits>
            <_><var>67</var>
              <quality>2.7760398387908936e-001</quality>
              <le>-1.2472628150135279e-003</le></_></splits></_>
        <_>
          <depth>2</depth>
          <value>-1.7097497207732215e+000</value></_>
        <_>
          <depth>2</depth>
          <value>8.5108164403355968e-001</value></_>
        <_>
          <depth>1</depth>
          <value>-6.4065660523822987e-001</value>
          <splits>
            <_><var>30</var>
              <quality>3.0978301167488098e-001</quality>
              <le>-8.9653491973876953e-002</le></_></splits></_>
        <_>
          <depth>2</depth>
          <value>7.3907572799756882e-001</value></_>
        <_>
          <depth>2</depth>
          <value>-1.2521140600779288e+000</value></_></nodes></_>
    <_>
      <nodes>
        <_>
          <depth>0</depth>
          <value>5.8076434661263115e-003</value>
          <splits>
            <_><var>163</var>
              <quality>2.5813192129135132e-001</quality>
              <le>2.6635167887434363e-004</le></_></splits></_>
        <_>
          <depth>1</depth>
          <value>-5.5104691883834478e-001</value>
          <splits>
            <_><var>79</var>
              <quality>2.2252541780471802e-001</quality>
              <le>-4.3503094464540482e-002</le></_></splits></_>
        <_>
          <depth>2</depth>
          <value>2.5040134291740307e-001</value></_>
        <_>
          <depth>2</depth>
          <value>-9.9976427093619791e-001</value></_>
        <_>
          <depth>1</depth>
          <value>5.7330907039961188e-001</value>
          <splits>
            <_><var>90</var>
              <quality>2.5375488400459290e-001</quality>
              <le>-4.2830998427234590e-004</le></_></splits></_>
        <_>
          <depth>2</depth>
          <value>-1.9846903471531070e+000</value></_>
        <_>
          <depth>2</depth>
          <value>8.3501108035505822e-001</value></_></nodes></_>
    <_>
      <nodes>
        <_>
          <depth>0</depth>
          <value>1.5635772245556521e-003</value>
          <splits>
            <_><var>85</var>
              <quality>2.2658415138721466e-001</quality>
              <le>-2.2167805582284927e-002</le></_></splits></_>
        <_>
          <depth>1</depth>
          <value>-8.3345489665086803e-001</value>
          <splits>
            <_><var>171</var>
              <quality>2.5189405679702759e-001</quality>
              <le>-4.3143108487129211e-003</le></_></splits></_>
        <_>
          <depth>2</depth>
          <value>8.2501294155113014e-001</value></_>
        <_>
          <depth>2</depth>
          <value>-1.5200460725311056e+000</value></_>
        <_>
          <depth>1</depth>
          <value>3.4846094862776889e-001</value>
          <splits>
            <_><var>101</var>
              <quality>1.9310142099857330e-001</quality>
              <le>9.5791521016508341e-004</le></_></splits></_>
        <_>
          <depth>2</depth>
          <value>5.2887201422224395e-001</value></_>
        <_>
          <depth>2</depth>
          <value>-1.2490011542137258e+000</value></_></nodes></_></trees></opencv_ml_boost>
</opencv_storage>
