<?xml version="1.0"?>
<opencv_storage>
<cascade>
  <stageType>BOOST</stageType>
  <featureType>HAAR</featureType>
  <height>25</height>
  <width>25</width>
  <stageParams>
    <boostType>RAB</boostType>
    <minHitRate>9.9900001287460327e-01</minHitRate>
    <maxFalseAlarm>5.0000000000000000e-01</maxFalseAlarm>
    <weightTrimRate>9.4999999999999996e-01</weightTrimRate>
    <maxDepth>5</maxDepth>
    <maxWeakCount>100</maxWeakCount></stageParams>
  <featureParams>
    <maxCatCount>0</maxCatCount>
    <featSize>1</featSize>
    <mode>BASIC</mode></featureParams>
  <stageNum>5</stageNum>
  <stages>
    <!-- stage 0 -->
    <_>
      <maxWeakCount>2</maxWeakCount>
      <stageThreshold>-3.3523291349411011e-01</stageThreshold>
      <weakClassifiers>
        <_>
          <internalNodes>
            1 2 116 -2.1707914769649506e-02 3 4 142
            1.2897310778498650e-02 5 6 73 2.7409128844738007e-02 0 7 35
            -2.2977775335311890e-01 -1 -2 108 -3.8312211632728577e-02 8
            9 79 3.8754824548959732e-02 10 11 81 5.9772497043013573e-03
            12 13 125 1.3294765725731850e-02 14 15 156
            -4.5388262718915939e-02 -3 -4 80 -5.5705420672893524e-03 16
            17 121 -3.1595374457538128e-03 -5 -6 12
            -6.0909707099199295e-03 -7 -8 96 -3.3179491758346558e-01 -9
            -10 0 1.6954612510744482e-04 -11 -12 138
            4.8090121708810329e-04 -13 -14 132 -4.1918680071830750e-02
            -15 -16 10 3.1870650127530098e-03 -17 -18 53
            4.6734446659684181e-03</internalNodes>
          <leafValues>
            -5.7564578056335449e+00 5.7564578056335449e+00
            -5.7564578056335449e+00 -1.0397207736968994e+00
            5.7564578056335449e+00 5.7564578056335449e+00
            -5.7564578056335449e+00 -5.7564578056335449e+00
            2.3695590496063232e+00 -5.7564578056335449e+00
            5.7564578056335449e+00 -4.2039158940315247e-01
            1.6661022901535034e+00 1.0397207736968994e+00
            -1.2839517593383789e+00 -5.7564578056335449e+00
            5.7564578056335449e+00 2.1486427783966064e+00
            -5.7564578056335449e+00</leafValues></_>
        <_>
          <internalNodes>
            1 2 170 6.1390595510601997e-04 3 4 158
            -3.5209956695325673e-04 5 6 176 1.0923080844804645e-03 7 8
            133 4.9521028995513916e-03 9 0 69 3.2089579850435257e-02 10
            11 171 2.4722390808165073e-03 -1 12 97
            -2.8777252882719040e-02 -2 13 82 -1.0747252963483334e-02 14
            15 154 3.5410473356023431e-04 16 17 134
            3.7197288125753403e-02 18 19 155 2.7209413051605225e-01 -3
            -4 24 2.8539156541228294e-02 -5 -6 17
            -8.0691143870353699e-02 -7 -8 9 -7.3452591896057129e-03 -9
            -10 100 -2.7577367145568132e-03 -11 -12 33
            -4.6791944652795792e-02 -13 -14 77 3.6154396831989288e-02
            -15 -16 58 7.2714075446128845e-02 -17 -18 172
            -2.4484847672283649e-03 -19 -20 4 1.7475784989073873e-04</internalNodes>
          <leafValues>
            5.7564578056335449e+00 5.7564578056335449e+00
            5.7564578056335449e+00 -5.7564578056335449e+00
            5.7564578056335449e+00 5.7564578056335449e+00
            -5.7564578056335449e+00 5.7564578056335449e+00
            -5.7564578056335449e+00 -5.0321030616760254e-01
            5.7564578056335449e+00 5.7564578056335449e+00
            -5.7564578056335449e+00 -2.0013351440429688e+00
            5.7564578056335449e+00 5.7564578056335449e+00
            -5.7564578056335449e+00 -5.7564578056335449e+00
            1.6918684244155884e+00 -5.7564578056335449e+00
            5.7564578056335449e+00</leafValues></_></weakClassifiers></_>
    <!-- stage 1 -->
    <_>
      <maxWeakCount>2</maxWeakCount>
      <stageThreshold>2.2755131112717208e-12</stageThreshold>
      <weakClassifiers>
        <_>
          <internalNodes>
            1 2 56 -1.2218818068504333e-02 3 4 76 4.2428958415985107e-01
            5 6 122 -9.7329448908567429e-03 0 7 51
            -2.7224785089492798e-01 -1 -2 0 1.8946168711408973e-04 8 -3
            23 1.0627743601799011e-01 9 10 153 1.9051835988648236e-04 11
            -4 65 1.0615181922912598e-01 -5 12 54
            -1.8652686476707458e-01 13 14 174 -1.5677721239626408e-03 15
            -6 19 8.9823909103870392e-02 -7 -8 34 5.6773000955581665e-01
            -9 -10 70 -4.9914124608039856e-01 -11 -12 67
            3.8363592466339469e-04 -13 -14 161 7.1765249595046043e-03
            -15 -16 26 -1.2943196296691895e-01</internalNodes>
          <leafValues>
            -1.0397207736968994e+00 -5.7564578056335449e+00
            5.7564578056335449e+00 -5.7564578056335449e+00
            -5.7564578056335449e+00 -6.2638145685195923e-01
            -5.7564578056335449e+00 2.5260920524597168e+00
            -8.0471897125244141e-01 -5.7564578056335449e+00
            2.2608942985534668e+00 -9.3590110540390015e-01
            5.7564578056335449e+00 -1.7557727098464966e+00
            5.7564578056335449e+00 -5.7564578056335449e+00
            5.7564578056335449e+00</leafValues></_>
        <_>
          <internalNodes>
            1 2 146 -3.2980469986796379e-03 3 4 126
            -4.3499603867530823e-02 5 6 152 1.8691434524953365e-04 0 -1
            56 -6.2194224447011948e-03 -2 7 113 -3.6438804119825363e-02
            8 9 166 -1.6027562087401748e-03 10 -3 165
            1.1549271643161774e-01 -4 11 87 -3.0877184867858887e-01 -5
            12 139 -7.0852059870958328e-03 -6 13 128
            -1.3690774794667959e-03 -7 14 85 -6.3433909416198730e-01 -8
            -9 48 -1.3367733359336853e-01 -10 -11 15
            -7.6614562422037125e-03 -12 -13 175 -1.8654103041626513e-04
            -14 -15 14 5.7209543883800507e-02</internalNodes>
          <leafValues>
            5.7564578056335449e+00 -5.7564578056335449e+00
            -1.1898787021636963e+00 -1.7492731809616089e+00
            -1.0783069133758545e+00 5.7564578056335449e+00
            5.7564578056335449e+00 -5.7564578056335449e+00
            -5.7564578056335449e+00 3.3940207958221436e+00
            5.7564578056335449e+00 -5.7564578056335449e+00
            5.7564578056335449e+00 -2.4263973236083984e+00
            2.0774559974670410e+00 -5.7564578056335449e+00</leafValues></_></weakClassifiers></_>
    <!-- stage 2 -->
    <_>
      <maxWeakCount>2</maxWeakCount>
      <stageThreshold>-4.7221100330352783e-01</stageThreshold>
      <weakClassifiers>
        <_>
          <internalNodes>
            1 2 110 -1.9234124571084976e-02 3 0 36
            3.7733095884323120e-01 4 5 105 2.4518934078514576e-03 6 -1
            68 7.7412509918212891e-01 7 8 147 2.2247165907174349e-03 9
            -2 88 2.3880468308925629e-01 10 11 78 2.1455633640289307e-01
            12 13 120 -1.3346159830689430e-02 -3 -4 62
            1.4713817834854126e-01 14 -5 32 4.3672055006027222e-01 -6 -7
            40 -7.6625955104827881e-01 -8 -9 22 -2.9061183333396912e-02
            -10 -11 46 -2.1656668186187744e-01 -12 -13 111
            5.6646845769137144e-04 -14 -15 52 -1.4859697222709656e-01</internalNodes>
          <leafValues>
            -5.7564578056335449e+00 -5.7564578056335449e+00
            -5.7564578056335449e+00 5.7564578056335449e+00
            -5.7564578056335449e+00 -5.7564578056335449e+00
            -1.0986123085021973e+00 2.1455149650573730e+00
            5.7564578056335449e+00 -5.7564578056335449e+00
            -5.7564578056335449e+00 5.7564578056335449e+00
            -1.3787375688552856e+00 9.3590110540390015e-01
            -5.7564578056335449e+00 1.8958684206008911e+00</leafValues></_>
        <_>
          <internalNodes>
            1 2 162 -3.5922829993069172e-03 3 4 141
            -1.6117428243160248e-01 5 6 167 9.6454221056774259e-04 0 -1
            98 6.5988987684249878e-02 7 8 50 -4.4360142946243286e-01 9
            10 173 -5.6467251852154732e-04 11 12 123
            -1.6641750931739807e-02 -2 -3 39 3.2827131450176239e-02 -4
            13 150 -2.8992885351181030e-01 14 -5 136
            6.3164569437503815e-02 15 16 95 -2.1664773521479219e-04 -6
            17 118 -8.6474763229489326e-03 18 19 104
            2.8730709105730057e-02 -7 -8 86 4.3237000703811646e-01 -9
            -10 13 8.5007727146148682e-02 -11 -12 18
            9.9644407629966736e-02 -13 -14 124 5.7813874445855618e-04
            -15 -16 2 1.4600675785914063e-04 -17 -18 160
            -2.8332255780696869e-02 -19 -20 7 -8.9829834178090096e-04</internalNodes>
          <leafValues>
            -5.7564578056335449e+00 5.7564578056335449e+00
            -5.7564578056335449e+00 5.7564578056335449e+00
            -5.7564578056335449e+00 -5.7564578056335449e+00
            5.7564578056335449e+00 2.5166838169097900e+00
            -3.4914234280586243e-01 5.7564578056335449e+00
            -5.7564578056335449e+00 5.7564578056335449e+00
            -5.7564578056335449e+00 -2.3680794239044189e+00
            6.3002812862396240e-01 -5.7564578056335449e+00
            5.7564578056335449e+00 -1.0097702741622925e+00
            5.7564578056335449e+00 5.7564578056335449e+00
            -5.7564578056335449e+00</leafValues></_></weakClassifiers></_>
    <!-- stage 3 -->
    <_>
      <maxWeakCount>2</maxWeakCount>
      <stageThreshold>-4.7112548351287842e-01</stageThreshold>
      <weakClassifiers>
        <_>
          <internalNodes>
            1 2 117 -4.4942460954189301e-02 3 4 99
            -1.3367801904678345e-01 5 6 102 1.9401480676606297e-04 0 -1
            6 -7.9182362242136151e-05 7 -2 131 3.4587484598159790e-01 8
            9 143 3.1139457132667303e-03 10 11 60 3.3432901836931705e-03
            12 13 38 2.7715194225311279e-01 14 -3 159
            9.6421339549124241e-04 15 -4 25 2.7723610401153564e-02 -5 16
            91 -3.4831851720809937e-02 -6 -7 3 2.6246768538840115e-04 -8
            -9 130 2.1412394940853119e-01 -10 -11 1
            3.5494522307999432e-04 -12 -13 107 1.9103582017123699e-03
            -14 -15 31 -3.6360999941825867e-01 -16 -17 92
            -4.0929022431373596e-01</internalNodes>
          <leafValues>
            5.7564578056335449e+00 -5.7564578056335449e+00
            -5.7564578056335449e+00 5.7564578056335449e+00
            -5.7564578056335449e+00 -5.4930615425109863e-01
            -5.7564578056335449e+00 5.7564578056335449e+00
            2.3282485008239746e+00 -4.0546509623527527e-01
            -5.7564578056335449e+00 5.7564578056335449e+00
            -1.0086845159530640e+00 5.7564578056335449e+00
            -5.7564578056335449e+00 5.7564578056335449e+00
            -5.7564578056335449e+00 1.7261263132095337e+00</leafValues></_>
        <_>
          <internalNodes>
            1 2 83 3.2188245095312595e-03 3 4 157 2.9243817552924156e-03
            5 6 164 5.6641816627234221e-04 7 8 151
            -1.4274204149842262e-03 9 10 145 5.5724894627928734e-03 11
            12 106 1.4435883611440659e-02 13 14 27
            -2.8746157884597778e-01 15 16 49 -5.9828959405422211e-02 17
            0 127 1.3925869017839432e-02 18 19 137
            1.5993074048310518e-03 -1 -2 8 3.1993340235203505e-04 -3 20
            45 -1.2555621564388275e-02 21 22 114 2.0779989659786224e-02
            -4 -5 22 -6.2251784838736057e-03 23 -6 20
            1.4441570639610291e-01 -7 -8 5 -1.9477119203656912e-03 -9
            -10 148 -8.1865895481314510e-05 -11 -12 140
            8.9880893938243389e-04 -13 -14 43 -6.3212436437606812e-01
            -15 -16 135 1.2567817466333508e-03 -17 -18 75
            -2.3340679705142975e-02 -19 -20 42 5.5446398258209229e-01
            -21 -22 11 -6.5763266757130623e-03 -23 -24 41
            -4.2925217747688293e-01</internalNodes>
          <leafValues>
            5.7564578056335449e+00 -5.7564578056335449e+00
            5.7564578056335449e+00 5.7564578056335449e+00
            5.7564578056335449e+00 -5.7564578056335449e+00
            -5.7564578056335449e+00 -5.7564578056335449e+00
            5.7564578056335449e+00 -7.4858850240707397e-01
            5.7564578056335449e+00 -2.0574562549591064e+00
            8.2461273670196533e-01 -5.7564578056335449e+00
            5.7564578056335449e+00 -1.3716812133789063e+00
            5.7564578056335449e+00 5.7564578056335449e+00
            -2.1972517967224121e+00 5.7564578056335449e+00
            -1.3529291152954102e+00 5.7564578056335449e+00
            -5.7564578056335449e+00 -5.7564578056335449e+00
            2.8078060150146484e+00</leafValues></_></weakClassifiers></_>
    <!-- stage 4 -->
    <_>
      <maxWeakCount>2</maxWeakCount>
      <stageThreshold>2.2755131112717208e-12</stageThreshold>
      <weakClassifiers>
        <_>
          <internalNodes>
            1 2 66 4.7177616506814957e-03 3 4 93 2.8561817016452551e-03
            5 0 47 6.6915675997734070e-02 6 7 94 2.8934981673955917e-03
            8 -1 59 2.6294654607772827e-01 -2 9 61
            -2.8486686944961548e-01 10 11 129 5.8725487906485796e-04 12
            -3 57 1.1214999854564667e-01 13 -4 119
            1.1450815945863724e-01 -5 14 37 -4.6589255332946777e-01 -6
            -7 112 2.2782469168305397e-03 -8 -9 72
            -1.3191068172454834e-01 -10 -11 55 -2.7162820100784302e-01
            -12 -13 28 -3.3560764789581299e-01 -14 -15 29
            -8.7108653783798218e-01</internalNodes>
          <leafValues>
            -5.7564578056335449e+00 -9.7295504808425903e-01
            -5.7564578056335449e+00 -6.9314718246459961e-01
            -6.9314718246459961e-01 -5.7564578056335449e+00
            -1.0498448610305786e+00 5.7564578056335449e+00
            -5.7564578056335449e+00 1.9356005191802979e+00
            -5.4930615425109863e-01 5.7564578056335449e+00
            -5.7564578056335449e+00 2.1587440967559814e+00
            -5.7564578056335449e+00 2.9513165950775146e+00</leafValues></_>
        <_>
          <internalNodes>
            1 2 168 9.3436427414417267e-04 3 4 144
            5.6945480173453689e-04 5 6 74 6.1508450657129288e-02 7 8 163
            -1.9765958131756634e-04 9 10 63 3.1238039955496788e-03 11 12
            44 -3.7848120927810669e-01 0 -1 30 -2.2442698478698730e-02
            13 14 101 1.2689229333773255e-04 15 16 89
            -2.7261776267550886e-04 -2 17 115 -1.6906891018152237e-02 18
            -3 71 2.3025619983673096e-01 19 -4 103
            1.8359623209107667e-04 -5 20 149 -1.1029666662216187e-01 -6
            -7 64 1.0077737271785736e-02 -8 -9 109
            1.1580314487218857e-01 -10 -11 16 -1.7743804492056370e-03
            -12 -13 169 -8.4550620522350073e-04 -14 -15 90
            8.8027282617986202e-04 -16 -17 21 2.1026182174682617e-01 -18
            -19 0 7.4487063102424145e-04 -20 -21 84
            -3.1751281023025513e-01</internalNodes>
          <leafValues>
            5.7564578056335449e+00 -5.7564578056335449e+00
            5.7564578056335449e+00 -5.7564578056335449e+00
            5.7564578056335449e+00 -5.7564578056335449e+00
            -2.0106248855590820e+00 5.7564578056335449e+00
            2.3027958869934082e+00 -5.7564578056335449e+00
            -5.7564578056335449e+00 5.7564578056335449e+00
            1.1454856395721436e+00 -1.8538244962692261e+00
            -1.8716206550598145e+00 5.7564578056335449e+00
            5.7564578056335449e+00 -5.7564578056335449e+00
            -5.7564578056335449e+00 5.7564578056335449e+00
            -1.4595104455947876e+00 2.1370618343353271e+00</leafValues></_></weakClassifiers></_></stages>
  <features>
    <_>
      <rects>
        <_>
          0 0 2 1 -1.</_>
        <_>
          1 0 1 1 2.</_></rects>
      <tilted>0</tilted></_>
    <_>
      <rects>
        <_>
          0 0 1 2 -1.</_>
        <_>
          0 1 1 1 2.</_></rects>
      <tilted>0</tilted></_>
    <_>
      <rects>
        <_>
          0 0 2 2 -1.</_>
        <_>
          0 0 1 1 2.</_>
        <_>
          1 1 1 1 2.</_></rects>
      <tilted>0</tilted></_>
    <_>
      <rects>
        <_>
          0 0 1 4 -1.</_>
        <_>
          0 2 1 2 2.</_></rects>
      <tilted>0</tilted></_>
    <_>
      <rects>
        <_>
          0 0 2 4 -1.</_>
        <_>
          0 0 1 2 2.</_>
        <_>
          1 2 1 2 2.</_></rects>
      <tilted>0</tilted></_>
    <_>
      <rects>
        <_>
          0 0 1 10 -1.</_>
        <_>
          0 5 1 5 2.</_></rects>
      <tilted>0</tilted></_>
    <_>
      <rects>
        <_>
          0 0 3 6 -1.</_>
        <_>
          1 0 1 6 3.</_></rects>
      <tilted>0</tilted></_>
    <_>
      <rects>
        <_>
          0 0 2 12 -1.</_>
        <_>
          0 0 1 6 2.</_>
        <_>
          1 6 1 6 2.</_></rects>
      <tilted>0</tilted></_>
    <_>
      <rects>
        <_>
          0 0 2 7 -1.</_>
        <_>
          1 0 1 7 2.</_></rects>
      <tilted>0</tilted></_>
    <_>
      <rects>
        <_>
          0 0 2 11 -1.</_>
        <_>
          1 0 1 11 2.</_></rects>
      <tilted>0</tilted></_>
    <_>
      <rects>
        <_>
          0 0 3 13 -1.</_>
        <_>
          1 0 1 13 3.</_></rects>
      <tilted>0</tilted></_>
    <_>
      <rects>
        <_>
          0 0 4 12 -1.</_>
        <_>
          0 0 2 6 2.</_>
        <_>
          2 6 2 6 2.</_></rects>
      <tilted>0</tilted></_>
    <_>
      <rects>
        <_>
          0 0 4 8 -1.</_>
        <_>
          2 0 2 8 2.</_></rects>
      <tilted>0</tilted></_>
    <_>
      <rects>
        <_>
          0 0 2 24 -1.</_>
        <_>
          0 8 2 8 3.</_></rects>
      <tilted>0</tilted></_>
    <_>
      <rects>
        <_>
          0 0 6 11 -1.</_>
        <_>
          3 0 3 11 2.</_></rects>
      <tilted>0</tilted></_>
    <_>
      <rects>
        <_>
          0 0 9 15 -1.</_>
        <_>
          3 0 3 15 3.</_></rects>
      <tilted>0</tilted></_>
    <_>
      <rects>
        <_>
          0 0 4 2 -1.</_>
        <_>
          0 1 4 1 2.</_></rects>
      <tilted>0</tilted></_>
    <_>
      <rects>
        <_>
          0 0 4 24 -1.</_>
        <_>
          0 8 4 8 3.</_></rects>
      <tilted>0</tilted></_>
    <_>
      <rects>
        <_>
          0 0 10 24 -1.</_>
        <_>
          0 0 5 12 2.</_>
        <_>
          5 12 5 12 2.</_></rects>
      <tilted>0</tilted></_>
    <_>
      <rects>
        <_>
          0 0 18 6 -1.</_>
        <_>
          6 0 6 6 3.</_></rects>
      <tilted>0</tilted></_>
    <_>
      <rects>
        <_>
          0 0 12 7 -1.</_>
        <_>
          6 0 6 7 2.</_></rects>
      <tilted>0</tilted></_>
    <_>
      <rects>
        <_>
          0 0 18 10 -1.</_>
        <_>
          6 0 6 10 3.</_></rects>
      <tilted>0</tilted></_>
    <_>
      <rects>
        <_>
          0 0 14 6 -1.</_>
        <_>
          0 0 7 3 2.</_>
        <_>
          7 3 7 3 2.</_></rects>
      <tilted>0</tilted></_>
    <_>
      <rects>
        <_>
          0 0 21 6 -1.</_>
        <_>
          7 0 7 6 3.</_></rects>
      <tilted>0</tilted></_>
    <_>
      <rects>
        <_>
          0 0 14 16 -1.</_>
        <_>
          0 0 7 8 2.</_>
        <_>
          7 8 7 8 2.</_></rects>
      <tilted>0</tilted></_>
    <_>
      <rects>
        <_>
          0 0 24 1 -1.</_>
        <_>
          8 0 8 1 3.</_></rects>
      <tilted>0</tilted></_>
    <_>
      <rects>
        <_>
          0 0 24 3 -1.</_>
        <_>
          8 0 8 3 3.</_></rects>
      <tilted>0</tilted></_>
    <_>
      <rects>
        <_>
          0 0 9 24 -1.</_>
        <_>
          0 8 9 8 3.</_></rects>
      <tilted>0</tilted></_>
    <_>
      <rects>
        <_>
          0 0 20 13 -1.</_>
        <_>
          10 0 10 13 2.</_></rects>
      <tilted>0</tilted></_>
    <_>
      <rects>
        <_>
          0 0 24 24 -1.</_>
        <_>
          12 0 12 24 2.</_></rects>
      <tilted>0</tilted></_>
    <_>
      <rects>
        <_>
          0 0 13 18 -1.</_>
        <_>
          0 6 13 6 3.</_></rects>
      <tilted>0</tilted></_>
    <_>
      <rects>
        <_>
          0 0 14 22 -1.</_>
        <_>
          0 11 14 11 2.</_></rects>
      <tilted>0</tilted></_>
    <_>
      <rects>
        <_>
          0 0 15 21 -1.</_>
        <_>
          0 7 15 7 3.</_></rects>
      <tilted>0</tilted></_>
    <_>
      <rects>
        <_>
          0 0 17 9 -1.</_>
        <_>
          0 3 17 3 3.</_></rects>
      <tilted>0</tilted></_>
    <_>
      <rects>
        <_>
          0 0 18 24 -1.</_>
        <_>
          0 12 18 12 2.</_></rects>
      <tilted>0</tilted></_>
    <_>
      <rects>
        <_>
          0 0 20 6 -1.</_>
        <_>
          0 3 20 3 2.</_></rects>
      <tilted>0</tilted></_>
    <_>
      <rects>
        <_>
          0 0 23 14 -1.</_>
        <_>
          0 7 23 7 2.</_></rects>
      <tilted>0</tilted></_>
    <_>
      <rects>
        <_>
          0 0 24 14 -1.</_>
        <_>
          0 7 24 7 2.</_></rects>
      <tilted>0</tilted></_>
    <_>
      <rects>
        <_>
          0 1 18 12 -1.</_>
        <_>
          6 1 6 12 3.</_></rects>
      <tilted>0</tilted></_>
    <_>
      <rects>
        <_>
          0 1 12 13 -1.</_>
        <_>
          6 1 6 13 2.</_></rects>
      <tilted>0</tilted></_>
    <_>
      <rects>
        <_>
          0 1 24 21 -1.</_>
        <_>
          12 1 12 21 2.</_></rects>
      <tilted>0</tilted></_>
    <_>
      <rects>
        <_>
          0 1 16 20 -1.</_>
        <_>
          0 11 16 10 2.</_></rects>
      <tilted>0</tilted></_>
    <_>
      <rects>
        <_>
          0 1 17 24 -1.</_>
        <_>
          0 9 17 8 3.</_></rects>
      <tilted>0</tilted></_>
    <_>
      <rects>
        <_>
          0 1 24 24 -1.</_>
        <_>
          0 9 24 8 3.</_></rects>
      <tilted>0</tilted></_>
    <_>
      <rects>
        <_>
          0 1 25 21 -1.</_>
        <_>
          0 8 25 7 3.</_></rects>
      <tilted>0</tilted></_>
    <_>
      <rects>
        <_>
          0 2 6 12 -1.</_>
        <_>
          0 2 3 6 2.</_>
        <_>
          3 8 3 6 2.</_></rects>
      <tilted>0</tilted></_>
    <_>
      <rects>
        <_>
          0 2 17 18 -1.</_>
        <_>
          0 11 17 9 2.</_></rects>
      <tilted>0</tilted></_>
    <_>
      <rects>
        <_>
          0 3 14 3 -1.</_>
        <_>
          7 3 7 3 2.</_></rects>
      <tilted>0</tilted></_>
    <_>
      <rects>
        <_>
          0 3 14 12 -1.</_>
        <_>
          0 3 7 6 2.</_>
        <_>
          7 9 7 6 2.</_></rects>
      <tilted>0</tilted></_>
    <_>
      <rects>
        <_>
          0 3 23 6 -1.</_>
        <_>
          0 6 23 3 2.</_></rects>
      <tilted>0</tilted></_>
    <_>
      <rects>
        <_>
          0 3 25 16 -1.</_>
        <_>
          0 11 25 8 2.</_></rects>
      <tilted>0</tilted></_>
    <_>
      <rects>
        <_>
          0 5 14 16 -1.</_>
        <_>
          7 5 7 16 2.</_></rects>
      <tilted>0</tilted></_>
    <_>
      <rects>
        <_>
          0 5 16 7 -1.</_>
        <_>
          8 5 8 7 2.</_></rects>
      <tilted>0</tilted></_>
    <_>
      <rects>
        <_>
          0 6 2 5 -1.</_>
        <_>
          1 6 1 5 2.</_></rects>
      <tilted>0</tilted></_>
    <_>
      <rects>
        <_>
          0 6 24 5 -1.</_>
        <_>
          8 6 8 5 3.</_></rects>
      <tilted>0</tilted></_>
    <_>
      <rects>
        <_>
          0 7 22 8 -1.</_>
        <_>
          11 7 11 8 2.</_></rects>
      <tilted>0</tilted></_>
    <_>
      <rects>
        <_>
          0 8 9 12 -1.</_>
        <_>
          3 8 3 12 3.</_></rects>
      <tilted>0</tilted></_>
    <_>
      <rects>
        <_>
          0 8 16 16 -1.</_>
        <_>
          0 8 8 8 2.</_>
        <_>
          8 16 8 8 2.</_></rects>
      <tilted>0</tilted></_>
    <_>
      <rects>
        <_>
          0 10 18 14 -1.</_>
        <_>
          0 17 18 7 2.</_></rects>
      <tilted>0</tilted></_>
    <_>
      <rects>
        <_>
          0 11 14 12 -1.</_>
        <_>
          7 11 7 12 2.</_></rects>
      <tilted>0</tilted></_>
    <_>
      <rects>
        <_>
          0 12 4 2 -1.</_>
        <_>
          2 12 2 2 2.</_></rects>
      <tilted>0</tilted></_>
    <_>
      <rects>
        <_>
          0 14 18 11 -1.</_>
        <_>
          6 14 6 11 3.</_></rects>
      <tilted>0</tilted></_>
    <_>
      <rects>
        <_>
          0 15 18 10 -1.</_>
        <_>
          6 15 6 10 3.</_></rects>
      <tilted>0</tilted></_>
    <_>
      <rects>
        <_>
          0 15 7 10 -1.</_>
        <_>
          0 20 7 5 2.</_></rects>
      <tilted>0</tilted></_>
    <_>
      <rects>
        <_>
          0 19 10 6 -1.</_>
        <_>
          0 19 5 3 2.</_>
        <_>
          5 22 5 3 2.</_></rects>
      <tilted>0</tilted></_>
    <_>
      <rects>
        <_>
          0 19 14 5 -1.</_>
        <_>
          7 19 7 5 2.</_></rects>
      <tilted>0</tilted></_>
    <_>
      <rects>
        <_>
          0 21 10 4 -1.</_>
        <_>
          0 21 5 2 2.</_>
        <_>
          5 23 5 2 2.</_></rects>
      <tilted>0</tilted></_>
    <_>
      <rects>
        <_>
          0 23 13 2 -1.</_>
        <_>
          0 24 13 1 2.</_></rects>
      <tilted>0</tilted></_>
    <_>
      <rects>
        <_>
          1 0 24 24 -1.</_>
        <_>
          9 0 8 24 3.</_></rects>
      <tilted>0</tilted></_>
    <_>
      <rects>
        <_>
          1 3 10 8 -1.</_>
        <_>
          1 3 5 4 2.</_>
        <_>
          6 7 5 4 2.</_></rects>
      <tilted>0</tilted></_>
    <_>
      <rects>
        <_>
          1 10 24 13 -1.</_>
        <_>
          13 10 12 13 2.</_></rects>
      <tilted>0</tilted></_>
    <_>
      <rects>
        <_>
          1 13 24 6 -1.</_>
        <_>
          13 13 12 6 2.</_></rects>
      <tilted>0</tilted></_>
    <_>
      <rects>
        <_>
          2 0 18 5 -1.</_>
        <_>
          11 0 9 5 2.</_></rects>
      <tilted>0</tilted></_>
    <_>
      <rects>
        <_>
          2 1 8 14 -1.</_>
        <_>
          2 1 4 7 2.</_>
        <_>
          6 8 4 7 2.</_></rects>
      <tilted>0</tilted></_>
    <_>
      <rects>
        <_>
          2 1 12 5 -1.</_>
        <_>
          8 1 6 5 2.</_></rects>
      <tilted>0</tilted></_>
    <_>
      <rects>
        <_>
          2 1 21 6 -1.</_>
        <_>
          2 3 21 2 3.</_></rects>
      <tilted>0</tilted></_>
    <_>
      <rects>
        <_>
          2 3 20 15 -1.</_>
        <_>
          12 3 10 15 2.</_></rects>
      <tilted>0</tilted></_>
    <_>
      <rects>
        <_>
          2 4 8 10 -1.</_>
        <_>
          2 4 4 5 2.</_>
        <_>
          6 9 4 5 2.</_></rects>
      <tilted>0</tilted></_>
    <_>
      <rects>
        <_>
          2 4 22 6 -1.</_>
        <_>
          13 4 11 6 2.</_></rects>
      <tilted>0</tilted></_>
    <_>
      <rects>
        <_>
          2 6 12 10 -1.</_>
        <_>
          2 6 6 5 2.</_>
        <_>
          8 11 6 5 2.</_></rects>
      <tilted>0</tilted></_>
    <_>
      <rects>
        <_>
          2 9 4 6 -1.</_>
        <_>
          2 11 4 2 3.</_></rects>
      <tilted>0</tilted></_>
    <_>
      <rects>
        <_>
          2 9 8 16 -1.</_>
        <_>
          2 9 4 8 2.</_>
        <_>
          6 17 4 8 2.</_></rects>
      <tilted>0</tilted></_>
    <_>
      <rects>
        <_>
          2 10 4 12 -1.</_>
        <_>
          2 14 4 4 3.</_></rects>
      <tilted>0</tilted></_>
    <_>
      <rects>
        <_>
          2 12 8 1 -1.</_>
        <_>
          6 12 4 1 2.</_></rects>
      <tilted>0</tilted></_>
    <_>
      <rects>
        <_>
          3 0 16 17 -1.</_>
        <_>
          11 0 8 17 2.</_></rects>
      <tilted>0</tilted></_>
    <_>
      <rects>
        <_>
          3 0 20 24 -1.</_>
        <_>
          13 0 10 24 2.</_></rects>
      <tilted>0</tilted></_>
    <_>
      <rects>
        <_>
          3 0 22 18 -1.</_>
        <_>
          3 9 22 9 2.</_></rects>
      <tilted>0</tilted></_>
    <_>
      <rects>
        <_>
          3 1 18 11 -1.</_>
        <_>
          12 1 9 11 2.</_></rects>
      <tilted>0</tilted></_>
    <_>
      <rects>
        <_>
          3 5 22 11 -1.</_>
        <_>
          14 5 11 11 2.</_></rects>
      <tilted>0</tilted></_>
    <_>
      <rects>
        <_>
          3 15 2 2 -1.</_>
        <_>
          3 15 1 1 2.</_>
        <_>
          4 16 1 1 2.</_></rects>
      <tilted>0</tilted></_>
    <_>
      <rects>
        <_>
          3 17 6 1 -1.</_>
        <_>
          5 17 2 1 3.</_></rects>
      <tilted>0</tilted></_>
    <_>
      <rects>
        <_>
          3 21 22 1 -1.</_>
        <_>
          14 21 11 1 2.</_></rects>
      <tilted>0</tilted></_>
    <_>
      <rects>
        <_>
          4 0 14 20 -1.</_>
        <_>
          4 10 14 10 2.</_></rects>
      <tilted>0</tilted></_>
    <_>
      <rects>
        <_>
          4 4 2 10 -1.</_>
        <_>
          4 4 1 5 2.</_>
        <_>
          5 9 1 5 2.</_></rects>
      <tilted>0</tilted></_>
    <_>
      <rects>
        <_>
          4 15 4 6 -1.</_>
        <_>
          4 15 2 3 2.</_>
        <_>
          6 18 2 3 2.</_></rects>
      <tilted>0</tilted></_>
    <_>
      <rects>
        <_>
          4 19 2 2 -1.</_>
        <_>
          4 19 1 1 2.</_>
        <_>
          5 20 1 1 2.</_></rects>
      <tilted>0</tilted></_>
    <_>
      <rects>
        <_>
          5 0 18 20 -1.</_>
        <_>
          11 0 6 20 3.</_></rects>
      <tilted>0</tilted></_>
    <_>
      <rects>
        <_>
          5 0 14 9 -1.</_>
        <_>
          5 3 14 3 3.</_></rects>
      <tilted>0</tilted></_>
    <_>
      <rects>
        <_>
          5 2 16 14 -1.</_>
        <_>
          5 9 16 7 2.</_></rects>
      <tilted>0</tilted></_>
    <_>
      <rects>
        <_>
          5 5 10 15 -1.</_>
        <_>
          10 5 5 15 2.</_></rects>
      <tilted>0</tilted></_>
    <_>
      <rects>
        <_>
          5 7 8 3 -1.</_>
        <_>
          5 8 8 1 3.</_></rects>
      <tilted>0</tilted></_>
    <_>
      <rects>
        <_>
          5 9 4 2 -1.</_>
        <_>
          5 10 4 1 2.</_></rects>
      <tilted>0</tilted></_>
    <_>
      <rects>
        <_>
          5 11 3 1 -1.</_>
        <_>
          6 11 1 1 3.</_></rects>
      <tilted>0</tilted></_>
    <_>
      <rects>
        <_>
          5 21 2 4 -1.</_>
        <_>
          5 21 1 2 2.</_>
        <_>
          6 23 1 2 2.</_></rects>
      <tilted>0</tilted></_>
    <_>
      <rects>
        <_>
          5 24 20 1 -1.</_>
        <_>
          15 24 10 1 2.</_></rects>
      <tilted>0</tilted></_>
    <_>
      <rects>
        <_>
          6 3 19 3 -1.</_>
        <_>
          6 4 19 1 3.</_></rects>
      <tilted>0</tilted></_>
    <_>
      <rects>
        <_>
          6 4 3 8 -1.</_>
        <_>
          6 8 3 4 2.</_></rects>
      <tilted>0</tilted></_>
    <_>
      <rects>
        <_>
          6 6 6 2 -1.</_>
        <_>
          6 6 3 1 2.</_>
        <_>
          9 7 3 1 2.</_></rects>
      <tilted>0</tilted></_>
    <_>
      <rects>
        <_>
          6 8 8 16 -1.</_>
        <_>
          6 8 4 8 2.</_>
        <_>
          10 16 4 8 2.</_></rects>
      <tilted>0</tilted></_>
    <_>
      <rects>
        <_>
          7 0 18 13 -1.</_>
        <_>
          13 0 6 13 3.</_></rects>
      <tilted>0</tilted></_>
    <_>
      <rects>
        <_>
          7 0 11 9 -1.</_>
        <_>
          7 3 11 3 3.</_></rects>
      <tilted>0</tilted></_>
    <_>
      <rects>
        <_>
          7 1 2 4 -1.</_>
        <_>
          7 1 1 2 2.</_>
        <_>
          8 3 1 2 2.</_></rects>
      <tilted>0</tilted></_>
    <_>
      <rects>
        <_>
          7 6 6 3 -1.</_>
        <_>
          7 7 6 1 3.</_></rects>
      <tilted>0</tilted></_>
    <_>
      <rects>
        <_>
          7 20 15 1 -1.</_>
        <_>
          12 20 5 1 3.</_></rects>
      <tilted>0</tilted></_>
    <_>
      <rects>
        <_>
          8 0 6 5 -1.</_>
        <_>
          11 0 3 5 2.</_></rects>
      <tilted>0</tilted></_>
    <_>
      <rects>
        <_>
          8 0 8 6 -1.</_>
        <_>
          8 2 8 2 3.</_></rects>
      <tilted>0</tilted></_>
    <_>
      <rects>
        <_>
          8 0 9 9 -1.</_>
        <_>
          8 3 9 3 3.</_></rects>
      <tilted>0</tilted></_>
    <_>
      <rects>
        <_>
          8 0 11 9 -1.</_>
        <_>
          8 3 11 3 3.</_></rects>
      <tilted>0</tilted></_>
    <_>
      <rects>
        <_>
          8 1 10 6 -1.</_>
        <_>
          8 3 10 2 3.</_></rects>
      <tilted>0</tilted></_>
    <_>
      <rects>
        <_>
          8 5 6 16 -1.</_>
        <_>
          8 13 6 8 2.</_></rects>
      <tilted>0</tilted></_>
    <_>
      <rects>
        <_>
          8 11 6 10 -1.</_>
        <_>
          8 11 3 5 2.</_>
        <_>
          11 16 3 5 2.</_></rects>
      <tilted>0</tilted></_>
    <_>
      <rects>
        <_>
          8 17 6 1 -1.</_>
        <_>
          10 17 2 1 3.</_></rects>
      <tilted>0</tilted></_>
    <_>
      <rects>
        <_>
          9 1 11 6 -1.</_>
        <_>
          9 3 11 2 3.</_></rects>
      <tilted>0</tilted></_>
    <_>
      <rects>
        <_>
          9 4 9 21 -1.</_>
        <_>
          9 11 9 7 3.</_></rects>
      <tilted>0</tilted></_>
    <_>
      <rects>
        <_>
          9 7 2 1 -1.</_>
        <_>
          10 7 1 1 2.</_></rects>
      <tilted>0</tilted></_>
    <_>
      <rects>
        <_>
          9 8 15 3 -1.</_>
        <_>
          9 9 15 1 3.</_></rects>
      <tilted>0</tilted></_>
    <_>
      <rects>
        <_>
          9 13 14 12 -1.</_>
        <_>
          9 13 7 6 2.</_>
        <_>
          16 19 7 6 2.</_></rects>
      <tilted>0</tilted></_>
    <_>
      <rects>
        <_>
          10 0 12 4 -1.</_>
        <_>
          10 0 6 2 2.</_>
        <_>
          16 2 6 2 2.</_></rects>
      <tilted>0</tilted></_>
    <_>
      <rects>
        <_>
          10 2 3 3 -1.</_>
        <_>
          10 3 3 1 3.</_></rects>
      <tilted>0</tilted></_>
    <_>
      <rects>
        <_>
          10 4 2 3 -1.</_>
        <_>
          10 5 2 1 3.</_></rects>
      <tilted>0</tilted></_>
    <_>
      <rects>
        <_>
          11 0 12 21 -1.</_>
        <_>
          17 0 6 21 2.</_></rects>
      <tilted>0</tilted></_>
    <_>
      <rects>
        <_>
          11 0 12 18 -1.</_>
        <_>
          11 9 12 9 2.</_></rects>
      <tilted>0</tilted></_>
    <_>
      <rects>
        <_>
          11 2 14 6 -1.</_>
        <_>
          11 2 7 3 2.</_>
        <_>
          18 5 7 3 2.</_></rects>
      <tilted>0</tilted></_>
    <_>
      <rects>
        <_>
          11 3 5 8 -1.</_>
        <_>
          11 7 5 4 2.</_></rects>
      <tilted>0</tilted></_>
    <_>
      <rects>
        <_>
          11 3 9 6 -1.</_>
        <_>
          11 6 9 3 2.</_></rects>
      <tilted>0</tilted></_>
    <_>
      <rects>
        <_>
          11 4 2 6 -1.</_>
        <_>
          11 6 2 2 3.</_></rects>
      <tilted>0</tilted></_>
    <_>
      <rects>
        <_>
          11 12 12 10 -1.</_>
        <_>
          15 12 4 10 3.</_></rects>
      <tilted>0</tilted></_>
    <_>
      <rects>
        <_>
          11 23 14 2 -1.</_>
        <_>
          11 23 7 1 2.</_>
        <_>
          18 24 7 1 2.</_></rects>
      <tilted>0</tilted></_>
    <_>
      <rects>
        <_>
          12 1 4 1 -1.</_>
        <_>
          14 1 2 1 2.</_></rects>
      <tilted>0</tilted></_>
    <_>
      <rects>
        <_>
          12 3 12 8 -1.</_>
        <_>
          12 3 6 4 2.</_>
        <_>
          18 7 6 4 2.</_></rects>
      <tilted>0</tilted></_>
    <_>
      <rects>
        <_>
          12 8 2 6 -1.</_>
        <_>
          12 8 1 3 2.</_>
        <_>
          13 11 1 3 2.</_></rects>
      <tilted>0</tilted></_>
    <_>
      <rects>
        <_>
          12 14 12 11 -1.</_>
        <_>
          18 14 6 11 2.</_></rects>
      <tilted>0</tilted></_>
    <_>
      <rects>
        <_>
          13 0 3 20 -1.</_>
        <_>
          14 0 1 20 3.</_></rects>
      <tilted>0</tilted></_>
    <_>
      <rects>
        <_>
          13 9 2 6 -1.</_>
        <_>
          13 11 2 2 3.</_></rects>
      <tilted>0</tilted></_>
    <_>
      <rects>
        <_>
          13 19 4 3 -1.</_>
        <_>
          13 20 4 1 3.</_></rects>
      <tilted>0</tilted></_>
    <_>
      <rects>
        <_>
          14 18 8 1 -1.</_>
        <_>
          18 18 4 1 2.</_></rects>
      <tilted>0</tilted></_>
    <_>
      <rects>
        <_>
          14 21 10 4 -1.</_>
        <_>
          14 21 5 2 2.</_>
        <_>
          19 23 5 2 2.</_></rects>
      <tilted>0</tilted></_>
    <_>
      <rects>
        <_>
          14 22 5 2 -1.</_>
        <_>
          14 23 5 1 2.</_></rects>
      <tilted>0</tilted></_>
    <_>
      <rects>
        <_>
          15 0 2 2 -1.</_>
        <_>
          15 0 1 1 2.</_>
        <_>
          16 1 1 1 2.</_></rects>
      <tilted>0</tilted></_>
    <_>
      <rects>
        <_>
          15 0 10 8 -1.</_>
        <_>
          20 0 5 8 2.</_></rects>
      <tilted>0</tilted></_>
    <_>
      <rects>
        <_>
          15 5 10 18 -1.</_>
        <_>
          15 11 10 6 3.</_></rects>
      <tilted>0</tilted></_>
    <_>
      <rects>
        <_>
          16 10 8 3 -1.</_>
        <_>
          16 11 8 1 3.</_></rects>
      <tilted>0</tilted></_>
    <_>
      <rects>
        <_>
          16 12 2 4 -1.</_>
        <_>
          16 12 1 2 2.</_>
        <_>
          17 14 1 2 2.</_></rects>
      <tilted>0</tilted></_>
    <_>
      <rects>
        <_>
          16 14 2 2 -1.</_>
        <_>
          16 14 1 1 2.</_>
        <_>
          17 15 1 1 2.</_></rects>
      <tilted>0</tilted></_>
    <_>
      <rects>
        <_>
          16 19 2 2 -1.</_>
        <_>
          16 20 2 1 2.</_></rects>
      <tilted>0</tilted></_>
    <_>
      <rects>
        <_>
          17 0 8 24 -1.</_>
        <_>
          21 0 4 24 2.</_></rects>
      <tilted>0</tilted></_>
    <_>
      <rects>
        <_>
          17 1 6 24 -1.</_>
        <_>
          17 9 6 8 3.</_></rects>
      <tilted>0</tilted></_>
    <_>
      <rects>
        <_>
          17 17 4 6 -1.</_>
        <_>
          17 17 2 3 2.</_>
        <_>
          19 20 2 3 2.</_></rects>
      <tilted>0</tilted></_>
    <_>
      <rects>
        <_>
          17 19 2 1 -1.</_>
        <_>
          18 19 1 1 2.</_></rects>
      <tilted>0</tilted></_>
    <_>
      <rects>
        <_>
          17 19 4 2 -1.</_>
        <_>
          17 19 2 1 2.</_>
        <_>
          19 20 2 1 2.</_></rects>
      <tilted>0</tilted></_>
    <_>
      <rects>
        <_>
          19 3 1 22 -1.</_>
        <_>
          19 14 1 11 2.</_></rects>
      <tilted>0</tilted></_>
    <_>
      <rects>
        <_>
          19 9 4 16 -1.</_>
        <_>
          19 9 2 8 2.</_>
        <_>
          21 17 2 8 2.</_></rects>
      <tilted>0</tilted></_>
    <_>
      <rects>
        <_>
          19 11 6 5 -1.</_>
        <_>
          21 11 2 5 3.</_></rects>
      <tilted>0</tilted></_>
    <_>
      <rects>
        <_>
          19 17 1 3 -1.</_>
        <_>
          19 18 1 1 3.</_></rects>
      <tilted>0</tilted></_>
    <_>
      <rects>
        <_>
          19 17 6 2 -1.</_>
        <_>
          22 17 3 2 2.</_></rects>
      <tilted>0</tilted></_>
    <_>
      <rects>
        <_>
          20 2 5 20 -1.</_>
        <_>
          20 12 5 10 2.</_></rects>
      <tilted>0</tilted></_>
    <_>
      <rects>
        <_>
          20 11 3 10 -1.</_>
        <_>
          21 11 1 10 3.</_></rects>
      <tilted>0</tilted></_>
    <_>
      <rects>
        <_>
          21 5 3 12 -1.</_>
        <_>
          22 5 1 12 3.</_></rects>
      <tilted>0</tilted></_>
    <_>
      <rects>
        <_>
          21 5 4 4 -1.</_>
        <_>
          21 5 2 2 2.</_>
        <_>
          23 7 2 2 2.</_></rects>
      <tilted>0</tilted></_>
    <_>
      <rects>
        <_>
          21 9 4 2 -1.</_>
        <_>
          21 9 2 1 2.</_>
        <_>
          23 10 2 1 2.</_></rects>
      <tilted>0</tilted></_>
    <_>
      <rects>
        <_>
          21 12 4 2 -1.</_>
        <_>
          23 12 2 2 2.</_></rects>
      <tilted>0</tilted></_>
    <_>
      <rects>
        <_>
          21 12 4 3 -1.</_>
        <_>
          21 13 4 1 3.</_></rects>
      <tilted>0</tilted></_>
    <_>
      <rects>
        <_>
          21 22 3 3 -1.</_>
        <_>
          22 22 1 3 3.</_></rects>
      <tilted>0</tilted></_>
    <_>
      <rects>
        <_>
          22 13 3 2 -1.</_>
        <_>
          23 13 1 2 3.</_></rects>
      <tilted>0</tilted></_>
    <_>
      <rects>
        <_>
          23 12 2 12 -1.</_>
        <_>
          23 12 1 6 2.</_>
        <_>
          24 18 1 6 2.</_></rects>
      <tilted>0</tilted></_>
    <_>
      <rects>
        <_>
          23 22 2 2 -1.</_>
        <_>
          23 22 1 1 2.</_>
        <_>
          24 23 1 1 2.</_></rects>
      <tilted>0</tilted></_>
    <_>
      <rects>
        <_>
          23 23 2 2 -1.</_>
        <_>
          24 23 1 2 2.</_></rects>
      <tilted>0</tilted></_></features></cascade>
</opencv_storage>
